{"learner":{"attributes":{"best_iteration":"320","best_score":"0.8696976016684046","scikit_learn":"{\"_estimator_type\": \"classifier\"}"},"feature_names":[],"feature_types":[],"gradient_booster":{"model":{"cats":{"enc":[],"feature_segments":[],"sorted_idx":[]},"gbtree_model_param":{"num_parallel_tree":"1","num_trees":"351"},"iteration_indptr":[0,1,2,3,4,5,6,7,8,9,10,11,12,13,14,15,16,17,18,19,20,21,22,23,24,25,26,27,28,29,30,31,32,33,34,35,36,37,38,39,40,41,42,43,44,45,46,47,48,49,50,51,52,53,54,55,56,57,58,59,60,61,62,63,64,65,66,67,68,69,70,71,72,73,74,75,76,77,78,79,80,81,82,83,84,85,86,87,88,89,90,91,92,93,94,95,96,97,98,99,100,101,102,103,104,105,106,107,108,109,110,111,112,113,114,115,116,117,118,119,120,121,122,123,124,125,126,127,128,129,130,131,132,133,134,135,136,137,138,139,140,141,142,143,144,145,146,147,148,149,150,151,152,153,154,155,156,157,158,159,160,161,162,163,164,165,166,167,168,169,170,171,172,173,174,175,176,177,178,179,180,181,182,183,184,185,186,187,188,189,190,191,192,193,194,195,196,197,198,199,200,201,202,203,204,205,206,207,208,209,210,211,212,213,214,215,216,217,218,219,220,221,222,223,224,225,226,227,228,229,230,231,232,233,234,235,236,237,238,239,240,241,242,243,244,245,246,247,248,249,250,251,252,253,254,255,256,257,258,259,260,261,262,263,264,265,266,267,268,269,270,271,272,273,274,275,276,277,278,279,280,281,282,283,284,285,286,287,288,289,290,291,292,293,294,295,296,297,298,299,300,301,302,303,304,305,306,307,308,309,310,311,312,313,314,315,316,317,318,319,320,321,322,323,324,325,326,327,328,329,330,331,332,333,334,335,336,337,338,339,340,341,342,343,344,345,346,347,348,349,350,351],"tree_info":[0,0,0,0,0,0,0,0,0,0,0,0,0,0,0,0,0,0,0,0,0,0,0,0,0,0,0,0,0,0,0,0,0,0,0,0,0,0,0,0,0,0,0,0,0,0,0,0,0,0,0,0,0,0,0,0,0,0,0,0,0,0,0,0,0,0,0,0,0,0,0,0,0,0,0,0,0,0,0,0,0,0,0,0,0,0,0,0,0,0,0,0,0,0,0,0,0,0,0,0,0,0,0,0,0,0,0,0,0,0,0,0,0,0,0,0,0,0,0,0,0,0,0,0,0,0,0,0,0,0,0,0,0,0,0,0,0,0,0,0,0,0,0,0,0,0,0,0,0,0,0,0,0,0,0,0,0,0,0,0,0,0,0,0,0,0,0,0,0,0,0,0,0,0,0,0,0,0,0,0,0,0,0,0,0,0,0,0,0,0,0,0,0,0,0,0,0,0,0,0,0,0,0,0,0,0,0,0,0,0,0,0,0,0,0,0,0,0,0,0,0,0,0,0,0,0,0,0,0,0,0,0,0,0,0,0,0,0,0,0,0,0,0,0,0,0,0,0,0,0,0,0,0,0,0,0,0,0,0,0,0,0,0,0,0,0,0,0,0,0,0,0,0,0,0,0,0,0,0,0,0,0,0,0,0,0,0,0,0,0,0,0,0,0,0,0,0,0,0,0,0,0,0,0,0,0,0,0,0,0,0,0,0,0,0,0,0,0,0,0,0,0,0,0,0,0,0,0,0,0,0,0,0,0,0,0,0,0,0,0,0,0,0,0,0,0,0,0,0,0,0],"trees":[{"base_weights":[-2.6574368E-2,-6.1711687E-1,6.794652E-1,-1.1459585E0,9.7196944E-2,1.0989712E0,2.6819086E-1,2.894713E-1,-1.3329438E0,4.0531096E-1,-1.3090389E0,1.1673812E0,-1.1405896E0,-3.889989E-1,6.3647306E-1,5.8905685E-1,-8.518519E-2,-1.4819423E0,7.474121E-2,9.079472E-1,-5.9822615E-2,6.7516856E-2,-1.6006709E0,1.232914E0,-6.716554E-1,6.082037E-2,-8.75E-2,1.3390336E0,-6.1947954E-1,-3.4208772E-1,8.11341E-1,-5.16711E-1,1.0655771E0,-7.3031515E-1,-1.7646697E0,9.20078E-1,-1.4052181E0,1.3678865E0,4.2586258E-1,1.2528658E0,-3.599766E-1,7.5637646E-2,-1.8309168E0,7.3741406E-2,1.3381032E0,-8.62069E-2,5.6566056E-2,-5.555556E-2,1.6765436E0,-9.068699E-1,1.1647192E0,1.007702E0,-1.5185773E0,-1.2400367E0,9.439573E-1,5.4934926E-2,-8.7878786E-2,6.818124E-2,-7.333334E-2,-6.398267E-2,1.8154705E-2,-9.176374E-2,1.9140951E-2,-7.647059E-2,6.878873E-2,6.082037E-2,-9.1836736E-2,-2.2587234E-2,7.541433E-2,4.7602277E-2,-4.396666E-2,7.843015E-2,-6.923077E-2,-3.7385203E-2,4.6417963E-2,-9.786096E-2,4.6473432E-2,-6.5221384E-2,6.1038297E-2,1.4428494E-2,7.090336E-2,9.0304516E-2,3.447664E-2,3.475637E-2,-5.7706922E-2,8.0184564E-2,-6.363636E-2,7.33159E-2,-6.666667E-2,6.082037E-2,-9.354839E-2,6.082037E-2,-8.9189194E-2,5.783983E-2,1.6605593E-3],"categories":[],"categories_nodes":[],"categories_segments":[],"categories_sizes":[],"default_left":[0,0,0,0,0,0,0,0,0,0,0,0,0,0,0,0,0,0,0,0,0,0,0,0,0,0,0,0,0,0,0,0,0,0,0,0,0,0,0,0,0,0,0,0,0,0,0,0,0,0,0,0,0,0,0,0,0,0,0,0,0,0,0,0,0,0,0,0,0,0,0,0,0,0,0,0,0,0,0,0,0,0,0,0,0,0,0,0,0,0,0,0,0,0,0],"id":0,"left_children":[1,3,5,7,9,11,13,15,17,19,21,23,25,27,29,31,-1,33,35,37,39,-1,41,43,45,-1,-1,47,49,51,53,55,57,59,61,63,65,67,69,71,73,-1,75,77,79,-1,-1,-1,81,83,85,87,89,91,93,-1,-1,-1,-1,-1,-1,-1,-1,-1,-1,-1,-1,-1,-1,-1,-1,-1,-1,-1,-1,-1,-1,-1,-1,-1,-1,-1,-1,-1,-1,-1,-1,-1,-1,-1,-1,-1,-1,-1,-1],"loss_changes":[5.649685E2,2.788351E2,1.0618762E2,1.1419885E2,1.3692686E2,4.8091644E1,7.599552E1,3.0676126E1,7.883649E1,6.0603107E1,4.622412E1,3.658008E1,1.5849498E1,4.584211E1,3.4663795E1,2.3704674E1,0E0,7.084961E1,4.7429848E1,2.7030807E1,5.38189E1,0E0,3.9800232E1,3.487155E1,2.2548431E1,0E0,0E0,1.3122908E1,5.253834E1,5.1026703E1,4.763076E1,2.9807772E1,2.5423157E1,5.722294E1,3.799762E1,2.8978134E1,1.7848469E1,1.6847847E1,4.359305E1,2.334919E1,5.6150227E1,0E0,1.8746613E1,4.098384E1,2.1653015E1,0E0,0E0,0E0,3.3586502E-1,3.527896E1,1.7412718E1,1.8184639E1,1.8710613E1,1.659833E1,3.116603E1,0E0,0E0,0E0,0E0,0E0,0E0,0E0,0E0,0E0,0E0,0E0,0E0,0E0,0E0,0E0,0E0,0E0,0E0,0E0,0E0,0E0,0E0,0E0,0E0,0E0,0E0,0E0,0E0,0E0,0E0,0E0,0E0,0E0,0E0,0E0,0E0,0E0,0E0,0E0,0E0],"parents":[2147483647,0,0,1,1,2,2,3,3,4,4,5,5,6,6,7,7,8,8,9,9,10,10,11,11,12,12,13,13,14,14,15,15,17,17,18,18,19,19,20,20,22,22,23,23,24,24,27,27,28,28,29,29,30,30,31,31,32,32,33,33,34,34,35,35,36,36,37,37,38,38,39,39,40,40,42,42,43,43,44,44,48,48,49,49,50,50,51,51,52,52,53,53,54,54],"right_children":[2,4,6,8,10,12,14,16,18,20,22,24,26,28,30,32,-1,34,36,38,40,-1,42,44,46,-1,-1,48,50,52,54,56,58,60,62,64,66,68,70,72,74,-1,76,78,80,-1,-1,-1,82,84,86,88,90,92,94,-1,-1,-1,-1,-1,-1,-1,-1,-1,-1,-1,-1,-1,-1,-1,-1,-1,-1,-1,-1,-1,-1,-1,-1,-1,-1,-1,-1,-1,-1,-1,-1,-1,-1,-1,-1,-1,-1,-1,-1],"split_conditions":[-9.032624E-3,5.5547947E-1,-5.308766E-1,-6.20053E-1,6.486421E-1,8.266293E-1,-4.058125E-1,1.2160833E-1,1.8406748E0,-4.1123298E-1,-2.0650916E0,1.4355549E0,-2.6942217E0,-1.4234803E0,-3.4026504E-2,9.914482E-2,-8.518519E-2,-5.9551823E-1,9.814792E-2,2.4758888E-2,-5.0624985E-1,6.7516856E-2,-2.4304118E0,-6.467975E-1,1.7911449E-1,6.082037E-2,-8.75E-2,-3.563314E-1,1.4558588E0,-1.0873828E-1,-5.057751E-1,-8.098742E-1,5.5854034E-1,7.26287E-1,3.5022848E0,-6.751512E-1,-1.7846202E0,-5.137004E-1,3.4302887E-2,-4.7879345E-3,6.4863235E-1,7.5637646E-2,3.7611737E0,1.9195913E0,-9.164927E-1,-8.62069E-2,5.6566056E-2,-5.555556E-2,2.221407E-1,-1.7044778E0,-4.316328E-1,-4.26345E-1,-2.8937728E0,-8.320311E-1,1.5913808E-1,5.4934926E-2,-8.7878786E-2,6.818124E-2,-7.333334E-2,-6.398267E-2,1.8154705E-2,-9.176374E-2,1.9140951E-2,-7.647059E-2,6.878873E-2,6.082037E-2,-9.1836736E-2,-2.2587234E-2,7.541433E-2,4.7602277E-2,-4.396666E-2,7.843015E-2,-6.923077E-2,-3.7385203E-2,4.6417963E-2,-9.786096E-2,4.6473432E-2,-6.5221384E-2,6.1038297E-2,1.4428494E-2,7.090336E-2,9.0304516E-2,3.447664E-2,3.475637E-2,-5.7706922E-2,8.0184564E-2,-6.363636E-2,7.33159E-2,-6.666667E-2,6.082037E-2,-9.354839E-2,6.082037E-2,-8.9189194E-2,5.783983E-2,1.6605593E-3],"split_indices":[41,180,331,331,107,209,258,108,59,241,243,107,31,265,354,273,0,79,135,177,258,0,311,273,167,0,0,362,146,119,337,155,107,362,148,111,36,47,337,332,267,0,100,270,165,0,0,0,2,277,118,205,126,84,107,0,0,0,0,0,0,0,0,0,0,0,0,0,0,0,0,0,0,0,0,0,0,0,0,0,0,0,0,0,0,0,0,0,0,0,0,0,0,0,0],"split_type":[0,0,0,0,0,0,0,0,0,0,0,0,0,0,0,0,0,0,0,0,0,0,0,0,0,0,0,0,0,0,0,0,0,0,0,0,0,0,0,0,0,0,0,0,0,0,0,0,0,0,0,0,0,0,0,0,0,0,0,0,0,0,0,0,0,0,0,0,0,0,0,0,0,0,0,0,0,0,0,0,0,0,0,0,0,0,0,0,0,0,0,0,0,0,0],"sum_hessian":[1.353009E3,7.3683484E2,6.161742E2,4.230361E2,3.1379874E2,3.042067E2,3.119675E2,4.8692238E1,3.7434387E2,2.5798465E2,5.581408E1,2.9565433E2,8.552346E0,1.1201805E2,1.9994946E2,4.2942238E1,5.75E0,3.384657E2,3.587816E1,1.235361E2,1.3444856E2,5.1570396E0,5.065704E1,2.8579965E2,9.854693E0,1.5523466E0,7E0,1.2616426E1,9.940163E1,3.0168774E1,1.6978069E2,1.290704E1,3.0035198E1,9.349458E1,2.4497112E2,2.3075813E1,1.2802346E1,6.2279785E1,6.1256317E1,2.4430506E1,1.1001805E2,3.1046932E0,4.7552345E1,2.3918774E1,2.6188086E2,6.25E0,3.6046932E0,1.25E0,1.1366426E1,8.60352E1,1.3366426E1,1.4116426E1,1.6052347E1,9.802346E0,1.5997835E2,5.6570396E0,7.25E0,2.7285198E1,2.75E0,6.2116425E1,3.1378159E1,2.3731409E2,7.6570396E0,3.25E0,1.9825813E1,1.5523466E0,1.125E1,4.3023467E0,5.7977436E1,4.3849277E1,1.740704E1,2.2180506E1,2.25E0,8.488989E1,2.5128159E1,4.575E1,1.8023466E0,1.0802346E1,1.3116426E1,1.8866426E1,2.4301445E2,9.314079E0,2.0523467E0,1.1261733E1,7.477347E1,1.1616426E1,1.75E0,1.2116426E1,2E0,1.5523466E0,1.45E1,1.5523466E0,8.25E0,1.2945488E2,3.0523466E1],"tree_param":{"num_deleted":"0","num_feature":"367","num_nodes":"95","size_leaf_vector":"1"}},{"base_weights":[2.7270751E-2,8.928733E-1,-6.404072E-1,1.7743006E-2,1.0500277E0,5.1990646E-1,-9.213256E-1,-1.0231316E0,4.4588283E-1,3.5243163E-1,1.2040057E0,-1.1958632E0,7.4594826E-1,-1.4699634E0,-4.9650577E-1,9.4136053E-1,-1.6118951E0,1.2924774E0,-1.9196506E-1,7.9387176E-1,-1.2692988E0,1.4515224E0,8.909769E-1,-9.1759466E-2,4.5461386E-1,9.274441E-1,-4.901031E-1,-1.5471725E0,7.2433025E-1,-1.2132748E0,-8.380027E-2,7.9301216E-2,-5.481385E-2,-9.449485E-2,5.85787E-2,1.6442449E0,-7.352919E-2,3.479899E-1,-8.848979E-2,-7.844201E-2,9.5137686E-1,5.641189E-2,-9.262756E-2,-6.4158164E-2,1.478028E0,-1.439508E-1,1.0923114E0,7.431941E-2,-6.259289E-2,5.607088E-1,1.5316956E0,-8.756896E-2,8.9835197E-1,3.9076176E-1,-1.6286477E0,1.4986069E0,-6.678169E-2,-1.3726178E0,1.2283335E0,-4.9908748E-1,6.953873E-1,1.4558668E-2,8.902077E-2,4.305912E-2,-8.522867E-2,5.4091837E-2,-7.352075E-2,7.586918E-2,-2.3435261E-2,-4.8565373E-2,6.250268E-2,5.7365634E-2,-7.24001E-2,4.1115295E-2,-4.1742332E-2,-5.0804723E-4,8.233597E-2,7.870578E-2,-6.3073784E-2,-7.460675E-2,7.0296705E-2,-8.688203E-2,3.4385135E-3,3.3419926E-2,8.40731E-2,-8.619561E-2,-7.0351325E-3,1.0517615E-2,8.475561E-2,2.7144825E-2,-4.702225E-2,-8.131159E-2,4.328674E-2],"categories":[],"categories_nodes":[],"categories_segments":[],"categories_sizes":[],"default_left":[0,0,0,0,0,0,0,0,0,0,0,0,0,0,0,0,0,0,0,0,0,0,0,0,0,0,0,0,0,0,0,0,0,0,0,0,0,0,0,0,0,0,0,0,0,0,0,0,0,0,0,0,0,0,0,0,0,0,0,0,0,0,0,0,0,0,0,0,0,0,0,0,0,0,0,0,0,0,0,0,0,0,0,0,0,0,0,0,0,0,0,0,0],"id":1,"left_children":[1,3,5,7,9,11,13,15,17,19,21,23,25,27,29,31,33,35,37,39,41,43,45,-1,47,49,51,53,55,57,59,-1,-1,-1,-1,61,-1,63,-1,-1,65,-1,-1,-1,67,69,71,-1,-1,73,75,-1,77,79,81,83,-1,85,87,89,91,-1,-1,-1,-1,-1,-1,-1,-1,-1,-1,-1,-1,-1,-1,-1,-1,-1,-1,-1,-1,-1,-1,-1,-1,-1,-1,-1,-1,-1,-1,-1,-1],"loss_changes":[7.9524536E2,8.2385864E1,2.5368927E2,4.1559685E1,5.4135437E1,5.986455E1,1.4512073E2,3.2960213E1,3.5914852E1,6.776998E1,3.0913513E1,1.9917013E1,3.073365E1,4.7301025E1,1.0467422E2,1.0802504E1,1.8684734E1,3.0128544E1,3.344996E1,2.9000599E1,3.0530449E1,1.8607391E1,3.8942383E1,0E0,1.2162168E1,2.5297882E1,3.2982048E1,4.226245E1,1.7865608E1,5.200888E1,7.342827E1,0E0,0E0,0E0,0E0,4.2282867E0,0E0,3.2593826E1,0E0,0E0,2.3682213E1,0E0,0E0,0E0,1.8240051E1,3.719566E1,2.3449478E1,0E0,0E0,2.8078583E1,7.820816E0,0E0,1.5410754E1,2.3970848E1,4.6961426E1,4.507637E-2,0E0,5.2509354E1,3.659564E0,6.85318E1,3.2626842E1,0E0,0E0,0E0,0E0,0E0,0E0,0E0,0E0,0E0,0E0,0E0,0E0,0E0,0E0,0E0,0E0,0E0,0E0,0E0,0E0,0E0,0E0,0E0,0E0,0E0,0E0,0E0,0E0,0E0,0E0,0E0,0E0],"parents":[2147483647,0,0,1,1,2,2,3,3,4,4,5,5,6,6,7,7,8,8,9,9,10,10,11,11,12,12,13,13,14,14,15,15,16,16,17,17,18,18,19,19,20,20,21,21,22,22,24,24,25,25,26,26,27,27,28,28,29,29,30,30,35,35,37,37,40,40,44,44,45,45,46,46,49,49,50,50,52,52,53,53,54,54,55,55,57,57,58,58,59,59,60,60],"right_children":[2,4,6,8,10,12,14,16,18,20,22,24,26,28,30,32,34,36,38,40,42,44,46,-1,48,50,52,54,56,58,60,-1,-1,-1,-1,62,-1,64,-1,-1,66,-1,-1,-1,68,70,72,-1,-1,74,76,-1,78,80,82,84,-1,86,88,90,92,-1,-1,-1,-1,-1,-1,-1,-1,-1,-1,-1,-1,-1,-1,-1,-1,-1,-1,-1,-1,-1,-1,-1,-1,-1,-1,-1,-1,-1,-1,-1,-1],"split_conditions":[-3.7752047E-1,-8.586015E-1,-6.364412E-1,-3.520289E-1,-4.855664E-1,-9.4632566E-1,-3.7773037E-1,-1.2288339E0,-2.219402E-1,-9.340002E-1,-5.0568163E-1,2.69702E-1,1.656467E0,1.1819929E0,2.387867E-1,-3.349949E-1,3.5786685E-1,9.275078E-1,-2.2377138E-1,-5.337425E-1,-4.6781844E-1,-5.8780828E0,-5.6728363E-1,-9.1759466E-2,-2.5759576E-2,5.6178576E-1,1.5852106E0,-6.5615267E-1,-2.1827404E-1,2.2918863E0,3.2667E-1,7.9301216E-2,-5.481385E-2,-9.449485E-2,5.85787E-2,-1.0286496E0,-7.352919E-2,3.969931E-1,-8.848979E-2,-7.844201E-2,2.1307655E-1,5.641189E-2,-9.262756E-2,-6.4158164E-2,1.123166E0,9.3686146E-1,1.5127712E0,7.431941E-2,-6.259289E-2,1.5463413E-1,-3.260424E-1,-8.756896E-2,-3.3059373E-1,9.950793E-2,1.1675607E0,1.7665858E0,-6.678169E-2,4.7397244E-1,2.544668E-1,-9.6168464E-1,-5.420962E-1,1.4558668E-2,8.902077E-2,4.305912E-2,-8.522867E-2,5.4091837E-2,-7.352075E-2,7.586918E-2,-2.3435261E-2,-4.8565373E-2,6.250268E-2,5.7365634E-2,-7.24001E-2,4.1115295E-2,-4.1742332E-2,-5.0804723E-4,8.233597E-2,7.870578E-2,-6.3073784E-2,-7.460675E-2,7.0296705E-2,-8.688203E-2,3.4385135E-3,3.3419926E-2,8.40731E-2,-8.619561E-2,-7.0351325E-3,1.0517615E-2,8.475561E-2,2.7144825E-2,-4.702225E-2,-8.131159E-2,4.328674E-2],"split_indices":[106,166,331,111,43,200,43,165,366,106,331,96,279,57,365,49,87,145,331,152,98,303,5,0,82,343,275,75,233,268,346,0,0,0,0,151,0,212,0,0,87,0,0,0,126,328,243,0,0,262,57,0,114,362,328,0,0,145,121,134,3,0,0,0,0,0,0,0,0,0,0,0,0,0,0,0,0,0,0,0,0,0,0,0,0,0,0,0,0,0,0,0,0],"split_type":[0,0,0,0,0,0,0,0,0,0,0,0,0,0,0,0,0,0,0,0,0,0,0,0,0,0,0,0,0,0,0,0,0,0,0,0,0,0,0,0,0,0,0,0,0,0,0,0,0,0,0,0,0,0,0,0,0,0,0,0,0,0,0,0,0,0,0,0,0,0,0,0,0,0,0,0,0,0,0,0,0,0,0,0,0,0,0,0,0,0,0,0,0],"sum_hessian":[1.3740016E3,5.9817194E2,7.758296E2,9.1234764E1,5.0693716E2,1.5105537E2,6.2477423E2,2.6185068E1,6.504969E1,9.225691E1,4.1468027E2,1.7084566E1,1.3397081E2,2.7157974E2,3.5319452E2,5.9000034E0,2.0285065E1,2.7510113E1,3.753958E1,7.291869E1,1.9338219E1,2.2954141E2,1.8513885E2,1.223379E1,4.8507752E0,1.1703554E2,1.6935268E1,2.6263354E2,8.946204E0,1.2834706E2,2.2484744E2,4.650366E0,1.2496376E0,1.8734924E1,1.5501415E0,2.4762499E1,2.747614E0,2.8549133E1,8.990447E0,3.9971685E0,6.8921524E1,3.6010857E0,1.5737132E1,1.7483473E0,2.2779306E2,3.019766E1,1.549412E2,3.1033711E0,1.7474039E0,7.403175E1,4.3003784E1,8.737088E0,8.19818E0,1.0443061E1,2.5219048E2,6.7002835E0,2.2459207E0,1.20895096E2,7.4519677E0,1.4690845E2,7.7939E1,2.5511384E0,2.221136E1,2.3303185E1,5.2459483E0,6.592357E1,2.9979544E0,2.2349539E2,4.297668E0,1.9140684E1,1.1056976E1,1.5219434E2,2.7468586E0,6.2691074E1,1.1340684E1,3.0486915E0,3.995509E1,6.4509892E0,1.747191E0,3.4935482E0,6.9495125E0,2.3695186E2,1.5238618E1,2.0496585E0,4.650625E0,9.3759224E1,2.7135868E1,2.7988029E0,4.653165E0,4.364309E1,1.0326536E2,4.743576E0,7.319543E1],"tree_param":{"num_deleted":"0","num_feature":"367","num_nodes":"93","size_leaf_vector":"1"}},{"base_weights":[1.7418861E-2,8.301988E-1,-5.879875E-1,1.04932226E-1,1.0169653E0,-1.0602714E0,4.2211866E-1,5.550084E-1,-1.0073538E0,1.565259E0,8.286467E-1,1.7428046E-1,-1.2302026E0,-3.4205457E-3,1.012428E0,-5.1441365E-1,9.0645975E-1,4.727337E-1,-9.0456E-2,-5.6298144E-2,1.6035447E0,9.255925E-1,-3.6450177E-1,4.5072007E-1,-8.468954E-2,-1.4229262E0,-5.428296E-1,2.1308956E-1,-1.5249826E0,-7.702001E-2,1.1147556E0,8.199448E-1,-8.8886924E-2,1.080479E0,-7.844787E-2,-7.293864E-2,1.2454233E0,8.387076E-2,1.6399297E0,-8.100926E-2,9.6440023E-1,-9.088052E-2,5.568229E-1,-8.344033E-2,7.0244694E-1,-1.4794446E0,1.1639376E0,-1.1402283E0,5.0526226E-1,6.2324816E-1,-7.0774615E-1,-9.22287E-2,5.9821993E-2,1.2466527E0,-4.212534E-1,7.510343E-2,-6.8787955E-2,-4.4609746E-3,6.982808E-2,-5.4094788E-2,8.5048236E-2,5.8148254E-2,-5.8950026E-2,5.9863884E-2,8.906064E-2,1.2158411E-2,5.5558193E-2,-7.818853E-2,6.545827E-2,4.4568617E-2,-7.649143E-2,-1.1180513E-2,-7.942649E-2,-5.301339E-2,8.479177E-2,-7.174922E-2,3.0273885E-2,-3.3082165E-2,6.4673655E-2,4.1111793E-2,-5.5188566E-2,3.9101195E-2,-6.350231E-2,6.579299E-2,-6.5197356E-2,-8.285702E-2,7.07906E-2],"categories":[],"categories_nodes":[],"categories_segments":[],"categories_sizes":[],"default_left":[0,0,0,0,0,0,0,0,0,0,0,0,0,0,0,0,0,0,0,0,0,0,0,0,0,0,0,0,0,0,0,0,0,0,0,0,0,0,0,0,0,0,0,0,0,0,0,0,0,0,0,0,0,0,0,0,0,0,0,0,0,0,0,0,0,0,0,0,0,0,0,0,0,0,0,0,0,0,0,0,0,0,0,0,0,0,0],"id":2,"left_children":[1,3,5,7,9,11,13,15,17,19,21,23,25,27,29,31,33,35,-1,-1,37,39,41,43,-1,45,47,49,51,-1,53,55,-1,57,-1,-1,59,61,63,-1,65,-1,67,-1,69,71,73,75,77,79,81,-1,-1,83,85,-1,-1,-1,-1,-1,-1,-1,-1,-1,-1,-1,-1,-1,-1,-1,-1,-1,-1,-1,-1,-1,-1,-1,-1,-1,-1,-1,-1,-1,-1,-1,-1],"loss_changes":[6.780008E2,7.956674E1,3.7717688E2,6.1416027E1,4.698706E1,1.1316162E2,6.3383427E1,3.323658E1,4.2834064E1,1.4007538E1,4.084517E1,3.4854805E1,6.193628E1,4.8953747E1,2.9327515E1,3.8887993E1,3.0119843E1,2.1550585E1,0E0,0E0,6.341522E0,3.3588745E1,3.7204308E1,3.2275715E1,0E0,5.5685608E1,6.6491974E1,4.9579414E1,1.830645E1,0E0,2.123085E1,1.92649E1,0E0,2.3137428E1,0E0,0E0,1.242488E1,6.5411925E0,5.0208435E0,0E0,3.3594055E1,0E0,2.9663136E1,0E0,2.3635977E1,4.918744E1,1.1796383E1,3.553041E1,3.6647034E1,3.202284E1,3.4970768E1,0E0,0E0,1.8374481E1,2.239283E1,0E0,0E0,0E0,0E0,0E0,0E0,0E0,0E0,0E0,0E0,0E0,0E0,0E0,0E0,0E0,0E0,0E0,0E0,0E0,0E0,0E0,0E0,0E0,0E0,0E0,0E0,0E0,0E0,0E0,0E0,0E0,0E0],"parents":[2147483647,0,0,1,1,2,2,3,3,4,4,5,5,6,6,7,7,8,8,9,9,10,10,11,11,12,12,13,13,14,14,15,15,16,16,17,17,20,20,21,21,22,22,23,23,25,25,26,26,27,27,28,28,30,30,31,31,33,33,36,36,37,37,38,38,40,40,42,42,44,44,45,45,46,46,47,47,48,48,49,49,50,50,53,53,54,54],"right_children":[2,4,6,8,10,12,14,16,18,20,22,24,26,28,30,32,34,36,-1,-1,38,40,42,44,-1,46,48,50,52,-1,54,56,-1,58,-1,-1,60,62,64,-1,66,-1,68,-1,70,72,74,76,78,80,82,-1,-1,84,86,-1,-1,-1,-1,-1,-1,-1,-1,-1,-1,-1,-1,-1,-1,-1,-1,-1,-1,-1,-1,-1,-1,-1,-1,-1,-1,-1,-1,-1,-1,-1,-1],"split_conditions":[-3.7752047E-1,-4.855664E-1,2.7145118E-1,-9.340002E-1,-1.3088087E0,-6.364412E-1,-8.446977E-2,-8.8581836E-1,-6.827058E-1,-1.999414E0,8.1325144E-1,-9.100556E-2,1.6087089E-2,1.4873344E0,-1.1134566E0,1.6075577E-1,1.9505459E0,4.2486334E-1,-9.0456E-2,-5.6298144E-2,-1.1186849E0,-9.94464E-1,1.156518E0,-8.4754694E-1,-8.468954E-2,1.0212488E0,4.871503E-1,-3.7230742E-1,1.6698303E0,-7.702001E-2,2.9462677E-1,-3.8984665E-1,-8.8886924E-2,-3.1146723E-1,-7.844787E-2,-7.293864E-2,3.9931934E-2,-5.783387E-1,-4.8849553E-1,-8.100926E-2,-8.586015E-1,-9.088052E-2,-1.3686195E-1,-8.344033E-2,6.78803E-1,-4.900136E-1,1.560841E-1,1.6018807E0,1.1577429E-1,8.2402873E-1,7.0813987E-3,-9.22287E-2,5.9821993E-2,1.6622251E0,2.1219912E0,7.510343E-2,-6.8787955E-2,-4.4609746E-3,6.982808E-2,-5.4094788E-2,8.5048236E-2,5.8148254E-2,-5.8950026E-2,5.9863884E-2,8.906064E-2,1.2158411E-2,5.5558193E-2,-7.818853E-2,6.545827E-2,4.4568617E-2,-7.649143E-2,-1.1180513E-2,-7.942649E-2,-5.301339E-2,8.479177E-2,-7.174922E-2,3.0273885E-2,-3.3082165E-2,6.4673655E-2,4.1111793E-2,-5.5188566E-2,3.9101195E-2,-6.350231E-2,6.579299E-2,-6.5197356E-2,-8.285702E-2,7.07906E-2],"split_indices":[106,43,46,106,123,331,248,163,42,147,308,300,248,74,366,301,240,169,0,0,141,5,254,192,0,53,144,244,135,0,165,102,0,152,0,0,267,21,56,0,166,0,175,0,232,107,117,221,348,209,357,0,0,234,1,0,0,0,0,0,0,0,0,0,0,0,0,0,0,0,0,0,0,0,0,0,0,0,0,0,0,0,0,0,0,0,0],"split_type":[0,0,0,0,0,0,0,0,0,0,0,0,0,0,0,0,0,0,0,0,0,0,0,0,0,0,0,0,0,0,0,0,0,0,0,0,0,0,0,0,0,0,0,0,0,0,0,0,0,0,0,0,0,0,0,0,0,0,0,0,0,0,0,0,0,0,0,0,0,0,0,0,0,0,0,0,0,0,0,0,0,0,0,0,0,0,0],"sum_hessian":[1.3758843E3,5.8718964E2,7.886947E2,1.2056472E2,4.6662494E2,5.373857E2,2.5130902E2,8.618983E1,3.4374893E1,1.17425644E2,3.4919928E2,6.501626E1,4.7236942E2,1.4661334E2,1.0469568E2,2.1204258E1,6.498557E1,1.222237E1,2.2152521E1,1.248594E0,1.1617705E2,3.2316565E2,2.6033636E1,5.7296215E1,7.720043E0,3.6809418E2,1.0427523E2,1.2910268E2,1.7510664E1,3.493276E0,1.012024E2,1.0482897E1,1.0721362E1,6.1243717E1,3.7418535E0,3.2386758E0,8.983694E0,2.7938201E0,1.13383224E2,4.2405014E0,3.1892514E2,9.724065E0,1.630957E1,5.484828E0,5.1811386E1,3.6064285E2,7.451325E0,6.636189E1,3.791333E1,8.954204E1,3.956064E1,1.5958745E1,1.5519198E0,9.3372856E1,7.82954E0,8.239191E0,2.2437053E0,1.3181574E1,4.8062145E1,1.2455136E0,7.7381806E0,1.5491865E0,1.2446337E0,2.9725399E1,8.365783E1,5.4374187E1,2.6455096E2,3.9885867E0,1.2320983E1,4.832238E1,3.489005E0,2.9066545E1,3.315763E2,1.2463155E0,6.2050095E0,5.6927834E1,9.434063E0,1.5349605E1,2.2563726E1,8.076067E1,8.781368E0,1.0733175E1,2.8827465E1,9.137755E1,1.9953116E0,4.7391887E0,3.090351E0],"tree_param":{"num_deleted":"0","num_feature":"367","num_nodes":"87","size_leaf_vector":"1"}},{"base_weights":[-4.8062215E-3,6.3423675E-1,-7.448508E-1,1.1318326E0,2.7387166E-1,-1.0981333E0,2.3338379E-1,2.995056E-1,1.2912036E0,8.104745E-1,-2.9689953E-1,1.8580362E-2,-1.3078123E0,6.246343E-1,-5.8880055E-1,7.573352E-1,-8.839662E-2,-6.524947E-2,1.3166193E0,-8.572658E-2,8.77263E-1,-8.305432E-1,2.9339728E-1,-8.35574E-2,3.4295568E-1,-1.3869845E0,8.443115E-1,7.534197E-1,-8.177662E-2,9.112091E-1,-1.0447967E0,1.0670348E0,-8.1179336E-2,1.3398333E0,-6.4972214E-2,1.1627787E0,4.0203E-1,7.2202966E-2,-1.2726032E0,-1.2913446E0,5.012733E-1,-8.172561E-2,6.6678196E-1,-1.4532762E0,5.472666E-1,1.7595779E0,-7.131185E-2,-7.86188E-2,8.798584E-1,1.4131331E0,-6.4272895E-2,6.907748E-1,-1.6723546E0,-3.5909485E-2,6.898161E-2,7.15569E-2,2.844513E-2,6.113065E-2,-7.0341244E-2,3.304925E-2,-8.889114E-2,4.2687617E-2,-5.1016312E-2,-7.4109346E-2,3.9530557E-2,-8.807615E-2,5.5277582E-2,-4.268013E-2,3.6133654E-2,-7.574524E-2,4.448544E-2,2.4051359E-2,-7.5498275E-2,-6.9955155E-2,6.9060914E-2,9.6094415E-2,3.5926104E-2,-7.392186E-2,4.8518073E-2,1.3900861E-2,8.551152E-2,6.9515206E-2,-7.044564E-2,-9.285416E-2,5.7541486E-2],"categories":[],"categories_nodes":[],"categories_segments":[],"categories_sizes":[],"default_left":[0,0,0,0,0,0,0,0,0,0,0,0,0,0,0,0,0,0,0,0,0,0,0,0,0,0,0,0,0,0,0,0,0,0,0,0,0,0,0,0,0,0,0,0,0,0,0,0,0,0,0,0,0,0,0,0,0,0,0,0,0,0,0,0,0,0,0,0,0,0,0,0,0,0,0,0,0,0,0,0,0,0,0,0,0],"id":3,"left_children":[1,3,5,7,9,11,13,15,17,19,21,23,25,27,29,31,-1,-1,33,-1,35,37,39,-1,41,43,45,47,-1,49,51,53,-1,55,-1,57,59,61,63,65,67,-1,69,71,73,75,-1,-1,77,79,-1,81,83,-1,-1,-1,-1,-1,-1,-1,-1,-1,-1,-1,-1,-1,-1,-1,-1,-1,-1,-1,-1,-1,-1,-1,-1,-1,-1,-1,-1,-1,-1,-1,-1],"loss_changes":[6.4294604E2,1.305101E2,2.1797101E2,4.0218384E1,1.3023697E2,1.0843707E2,5.440088E1,4.9134632E1,1.8650635E1,3.8442688E1,6.526253E1,4.123078E1,6.759247E1,3.4501503E1,3.834911E1,3.2732063E1,0E0,0E0,1.7204254E1,0E0,2.8576645E1,4.345655E1,3.317483E1,0E0,4.147172E1,4.905548E1,3.2546368E1,3.338432E1,0E0,1.6458668E1,4.7329628E1,2.2088268E1,0E0,1.6985748E1,0E0,2.21978E1,4.7386307E1,3.2179142E1,3.2737617E1,1.5166359E1,2.701693E1,0E0,2.8047884E1,4.0659363E1,2.3355478E1,4.3536377E-1,0E0,0E0,2.3599785E1,3.3307667E0,0E0,1.9534319E1,1.8527657E1,0E0,0E0,0E0,0E0,0E0,0E0,0E0,0E0,0E0,0E0,0E0,0E0,0E0,0E0,0E0,0E0,0E0,0E0,0E0,0E0,0E0,0E0,0E0,0E0,0E0,0E0,0E0,0E0,0E0,0E0,0E0,0E0],"parents":[2147483647,0,0,1,1,2,2,3,3,4,4,5,5,6,6,7,7,8,8,9,9,10,10,11,11,12,12,13,13,14,14,15,15,18,18,20,20,21,21,22,22,24,24,25,25,26,26,27,27,29,29,30,30,31,31,33,33,35,35,36,36,37,37,38,38,39,39,40,40,42,42,43,43,44,44,45,45,48,48,49,49,51,51,52,52],"right_children":[2,4,6,8,10,12,14,16,18,20,22,24,26,28,30,32,-1,-1,34,-1,36,38,40,-1,42,44,46,48,-1,50,52,54,-1,56,-1,58,60,62,64,66,68,-1,70,72,74,76,-1,-1,78,80,-1,82,84,-1,-1,-1,-1,-1,-1,-1,-1,-1,-1,-1,-1,-1,-1,-1,-1,-1,-1,-1,-1,-1,-1,-1,-1,-1,-1,-1,-1,-1,-1,-1,-1],"split_conditions":[4.5719907E-1,-1.21224E0,4.1765547E-1,-6.5514576E-1,-4.3644473E-1,-1.03496976E-1,-7.872263E-2,4.94898E-1,-1.180606E0,-1.6672648E0,-1.6716182E-1,-5.7981956E-1,2.5871913E0,6.7164534E-1,-4.2938232E-1,6.197432E-1,-8.839662E-2,-6.524947E-2,4.56805E0,-8.572658E-2,3.2153395E-1,-5.8584925E-2,-1.2453523E0,-8.35574E-2,-4.7916645E-1,2.258485E0,-8.1365955E-1,-1.1796227E0,-8.177662E-2,-8.083263E-1,-8.463194E-1,-6.37862E-1,-8.1179336E-2,-6.713412E-2,-6.4972214E-2,1.20323E0,1.2313532E0,-1.6003917E-1,1.595747E0,5.4606557E-1,-6.5403306E-1,-8.172561E-2,-4.0971613E-1,-1.3082386E0,3.0261722E-1,2.124894E-1,-7.131185E-2,-7.86188E-2,-4.908555E-3,-3.5350144E-1,-6.4272895E-2,5.3934187E-1,8.888023E0,-3.5909485E-2,6.898161E-2,7.15569E-2,2.844513E-2,6.113065E-2,-7.0341244E-2,3.304925E-2,-8.889114E-2,4.2687617E-2,-5.1016312E-2,-7.4109346E-2,3.9530557E-2,-8.807615E-2,5.5277582E-2,-4.268013E-2,3.6133654E-2,-7.574524E-2,4.448544E-2,2.4051359E-2,-7.5498275E-2,-6.9955155E-2,6.9060914E-2,9.6094415E-2,3.5926104E-2,-7.392186E-2,4.8518073E-2,1.3900861E-2,8.551152E-2,6.9515206E-2,-7.044564E-2,-9.285416E-2,5.7541486E-2],"split_indices":[106,106,46,165,331,34,203,269,3,117,46,232,262,294,291,192,0,0,88,0,350,355,105,0,197,123,102,275,0,224,241,198,0,107,0,366,300,246,126,2,51,0,85,344,339,309,0,0,97,258,0,203,54,0,0,0,0,0,0,0,0,0,0,0,0,0,0,0,0,0,0,0,0,0,0,0,0,0,0,0,0,0,0,0,0],"split_type":[0,0,0,0,0,0,0,0,0,0,0,0,0,0,0,0,0,0,0,0,0,0,0,0,0,0,0,0,0,0,0,0,0,0,0,0,0,0,0,0,0,0,0,0,0,0,0,0,0,0,0,0,0,0,0,0,0,0,0,0,0,0,0,0,0,0,0,0,0,0,0,0,0,0,0,0,0,0,0,0,0,0,0,0,0],"sum_hessian":[1.357524E3,7.2854987E2,6.289741E2,3.0511005E2,4.2343982E2,4.620026E2,1.6697153E2,4.9495495E1,2.5561456E2,2.1803613E2,2.0540369E2,7.317843E1,3.8882416E2,1.1329733E2,5.3674202E1,4.1040787E1,8.454708E0,1.9900148E0,2.5362454E2,4.982868E0,2.1305327E2,1.0766486E2,9.773883E1,1.1116857E1,6.206157E1,3.7537057E2,1.3453576E1,1.0782033E2,5.477002E0,1.2280136E1,4.1394066E1,3.6805176E1,4.235612E0,2.5187732E2,1.7472305E0,1.3218872E2,8.086455E1,3.5666237E1,7.199862E1,1.0729609E1,8.7009224E1,8.163442E0,5.389813E1,3.631724E2,1.2198186E1,9.74883E0,3.7047465E0,4.96964E0,1.02850685E2,1.0286444E1,1.9936929E0,1.0965949E1,3.0428118E1,5.2910175E0,3.1514158E1,2.2443958E2,2.7437752E1,1.2969298E2,2.495749E0,7.290106E1,7.963483E0,2.0919712E1,1.4746526E1,6.561499E1,6.383635E0,9.191645E0,1.537964E0,1.1820026E1,7.51892E1,4.459494E0,4.9438633E1,1.0127444E1,3.5304495E2,3.4555528E0,8.742633E0,7.701931E0,2.0468986E0,3.234391E0,9.9616295E1,2.535369E0,7.751075E0,8.478961E0,2.4869883E0,2.8880587E1,1.5475312E0],"tree_param":{"num_deleted":"0","num_feature":"367","num_nodes":"85","size_leaf_vector":"1"}},{"base_weights":[1.9846758E-2,7.9322404E-1,-5.63706E-1,1.3211609E0,5.7659626E-1,-1.0226015E0,3.7505782E-1,-6.0531773E-2,1.3545014E0,9.521409E-1,1.3263829E-1,6.6128206E-1,-1.1319118E0,5.456027E-1,-1.288727E0,1.3853887E0,-6.267597E-2,-1.0941454E0,1.0297517E0,2.8741747E-1,-1.2415555E0,1.1687843E0,-7.8524016E-2,2.4394271E-1,-1.216483E0,2.1458273E-1,1.1293828E0,-8.734729E-2,9.0824646E-1,3.8681588E-1,1.4591718E0,5.6488734E-2,-8.635151E-2,-3.2983524E-1,1.1003386E0,-6.5575045E-1,5.1577675E-1,-9.0561256E-2,6.002847E-2,-6.0877312E-2,1.380807E0,8.203165E-1,-7.852416E-2,-1.2699863E0,1.2197174E0,5.046781E-1,-1.1713731E0,-6.5064274E-2,1.2117708E0,5.9586007E-2,2.0447874E-2,-8.03005E-2,7.306841E-2,7.592447E-2,2.2802988E-2,5.450795E-2,-8.621696E-2,3.7020944E-2,6.7513935E-2,-5.8816344E-2,6.1947566E-2,-2.2859002E-2,3.8563527E-2,-6.9748918E-3,8.067852E-2,-6.6384755E-2,6.0205907E-2,-6.789423E-2,4.5673453E-4,9.1189556E-2,-5.8127142E-2,3.4624334E-2,-4.8337612E-2,-9.1643624E-2,4.3222934E-2,6.444322E-2,-6.27227E-2],"categories":[],"categories_nodes":[],"categories_segments":[],"categories_sizes":[],"default_left":[0,0,0,0,0,0,0,0,0,0,0,0,0,0,0,0,0,0,0,0,0,0,0,0,0,0,0,0,0,0,0,0,0,0,0,0,0,0,0,0,0,0,0,0,0,0,0,0,0,0,0,0,0,0,0,0,0,0,0,0,0,0,0,0,0,0,0,0,0,0,0,0,0,0,0,0,0],"id":4,"left_children":[1,3,5,7,9,11,13,-1,15,17,19,21,23,25,27,29,-1,31,33,35,37,39,-1,41,43,45,47,-1,49,51,53,-1,-1,55,57,59,61,-1,-1,-1,63,65,-1,67,69,71,73,-1,75,-1,-1,-1,-1,-1,-1,-1,-1,-1,-1,-1,-1,-1,-1,-1,-1,-1,-1,-1,-1,-1,-1,-1,-1,-1,-1,-1,-1],"loss_changes":[6.160287E2,6.637186E1,3.3553772E2,1.5990845E1,6.956441E1,9.698181E1,7.339151E1,0E0,1.5291992E1,3.7063522E1,4.134604E1,3.8647583E1,5.7465393E1,4.4794044E1,2.5862705E1,1.1723602E1,0E0,1.4271708E1,2.1335022E1,3.7817917E1,2.9576193E1,1.5368996E1,0E0,3.1913698E1,6.1903137E1,6.088371E1,1.8417847E1,0E0,1.9476771E-1,2.9833908E1,8.526978E0,0E0,0E0,2.4760897E1,1.7709259E1,3.534811E1,3.5317364E1,0E0,0E0,0E0,9.183125E0,2.0462456E1,0E0,5.100891E1,1.717371E1,3.513077E1,3.6944046E1,0E0,1.7180382E1,0E0,0E0,0E0,0E0,0E0,0E0,0E0,0E0,0E0,0E0,0E0,0E0,0E0,0E0,0E0,0E0,0E0,0E0,0E0,0E0,0E0,0E0,0E0,0E0,0E0,0E0,0E0,0E0],"parents":[2147483647,0,0,1,1,2,2,3,3,4,4,5,5,6,6,8,8,9,9,10,10,11,11,12,12,13,13,14,14,15,15,17,17,18,18,19,19,20,20,21,21,23,23,24,24,25,25,26,26,28,28,29,29,30,30,33,33,34,34,35,35,36,36,40,40,41,41,43,43,44,44,45,45,46,46,48,48],"right_children":[2,4,6,8,10,12,14,-1,16,18,20,22,24,26,28,30,-1,32,34,36,38,40,-1,42,44,46,48,-1,50,52,54,-1,-1,56,58,60,62,-1,-1,-1,64,66,-1,68,70,72,74,-1,76,-1,-1,-1,-1,-1,-1,-1,-1,-1,-1,-1,-1,-1,-1,-1,-1,-1,-1,-1,-1,-1,-1,-1,-1,-1,-1,-1,-1],"split_conditions":[-3.7752047E-1,-1.7687198E0,2.7145118E-1,-2.4076085E0,-4.3644473E-1,-7.6415235E-1,5.9892076E-1,-6.0531773E-2,2.805994E-1,-8.1217074E-1,6.715641E-2,-1.7264915E-1,-1.314626E0,5.397089E-1,3.5718757E-1,-7.455753E-1,-6.267597E-2,-2.1748345E0,-6.22518E-1,-6.0594714E-1,1.7890459E0,2.343283E-2,-7.8524016E-2,2.4845578E-1,3.3857038E0,3.4874E-1,-5.6521523E-1,-8.734729E-2,1.17956676E-1,9.185845E-1,1.4865756E-1,5.6488734E-2,-8.635151E-2,-5.9110425E-2,-5.2078646E-1,1.750178E0,-8.95178E-1,-9.0561256E-2,6.002847E-2,-6.0877312E-2,-1.8054551E-1,-8.586015E-1,-7.852416E-2,1.3723359E0,-8.1365955E-1,-7.39275E-3,1.1462734E0,-6.5064274E-2,1.3628052E0,5.9586007E-2,2.0447874E-2,-8.03005E-2,7.306841E-2,7.592447E-2,2.2802988E-2,5.450795E-2,-8.621696E-2,3.7020944E-2,6.7513935E-2,-5.8816344E-2,6.1947566E-2,-2.2859002E-2,3.8563527E-2,-6.9748918E-3,8.067852E-2,-6.6384755E-2,6.0205907E-2,-6.789423E-2,4.5673453E-4,9.1189556E-2,-5.8127142E-2,3.4624334E-2,-4.8337612E-2,-9.1643624E-2,4.3222934E-2,6.444322E-2,-6.27227E-2],"split_indices":[106,106,46,362,331,331,300,0,97,362,207,338,35,346,257,111,0,57,112,3,127,87,0,122,262,127,275,0,44,154,208,0,0,164,163,175,163,0,0,0,347,166,0,295,102,335,113,0,201,0,0,0,0,0,0,0,0,0,0,0,0,0,0,0,0,0,0,0,0,0,0,0,0,0,0,0,0],"split_type":[0,0,0,0,0,0,0,0,0,0,0,0,0,0,0,0,0,0,0,0,0,0,0,0,0,0,0,0,0,0,0,0,0,0,0,0,0,0,0,0,0,0,0,0,0,0,0,0,0,0,0,0,0,0,0,0,0,0,0,0,0,0,0,0,0,0,0,0,0,0,0,0,0,0,0,0,0],"sum_hessian":[1.362999E3,5.8600824E2,7.7699084E2,1.6901306E2,4.169952E2,5.218203E2,2.551705E2,1.7377963E0,1.6727525E2,2.2528316E2,1.9171204E2,3.1501535E1,4.903188E2,2.3205588E2,2.3114616E1,1.6578069E2,1.494579E0,7.7535954E0,2.1752957E2,1.7301566E2,1.8696379E1,2.6053314E1,5.448222E0,2.828454E1,4.6203427E2,1.489593E2,8.309657E1,1.929511E1,3.8195055E0,1.1835992E1,1.5394469E2,1.5437672E0,6.2098284E0,1.0555014E1,2.0697455E2,3.3360165E1,1.3965549E2,1.5369505E1,3.3268738E0,1.7389369E0,2.4314377E1,2.188151E1,6.4030285E0,4.5257364E2,9.460628E0,1.2370285E2,2.525646E1,2.239209E0,8.085737E1,1.5516912E0,2.2678144E0,3.9730785E0,7.862913E0,1.4486456E2,9.080133E0,5.3378444E0,5.2171693E0,8.64487E1,1.20525856E2,2.646732E1,6.892845E0,2.8881437E1,1.10774055E2,3.281539E0,2.1032837E1,2.9442396E0,1.8937271E1,4.234159E2,2.9157732E1,7.7339463E0,1.7266814E0,1.10170425E2,1.3532423E1,1.9137756E1,6.1187043E0,7.886932E1,1.9880434E0],"tree_param":{"num_deleted":"0","num_feature":"367","num_nodes":"77","size_leaf_vector":"1"}},{"base_weights":[5.380005E-2,6.251947E-1,-6.0907924E-1,-3.6873552E-1,7.8682524E-1,-9.4970983E-1,2.725183E-1,4.5437142E-1,-1.0112755E0,1.250613E0,5.7667476E-1,-6.5093684E-1,-1.5411694E0,7.610477E-1,-3.1002304E-1,8.353821E-1,-8.304772E-2,-1.324471E0,9.091399E-1,1.2757529E0,-6.137702E-2,7.586213E-1,-1.6692464E-1,-1.4023478E0,-3.0552462E-1,5.4188675E-1,-8.4170096E-2,1.1408685E0,-1.3319704E-1,1.1254895E0,-6.964699E-1,1.1799426E0,-8.833094E-1,5.3204286E-1,-1.6230366E0,7.75814E-2,-5.5700697E-2,-4.7169098E-1,1.3121238E0,8.621602E-1,-1.7290209E-1,1.2614311E-1,-8.676784E-2,-1.5187774E0,7.995658E-2,-5.742863E-2,-1.292905E0,-6.587406E-2,1.4255412E0,1.2301732E0,-6.161601E-2,8.189419E-1,-1.3552705E0,1.4938679E0,-6.0825806E-2,-1.13348156E-1,-8.691814E-2,6.891663E-2,-6.665505E-2,5.518165E-2,-8.05851E-2,-6.1969608E-2,6.733804E-2,5.673654E-2,-8.7478556E-2,-7.481236E-2,5.1671352E-2,-5.576999E-2,6.6684954E-2,-4.9219918E-2,4.54931E-2,3.182663E-2,-7.190441E-2,5.907774E-2,-1.1568876E-2,-8.170685E-2,4.0948972E-2,7.14162E-3,-8.2046114E-2,-7.699816E-2,6.271151E-2,8.041551E-2,3.0386796E-2,6.5230265E-2,-6.0075786E-2,6.1247982E-2,-6.7095414E-2,5.6339856E-2,-8.850799E-2,8.2808584E-2,1.8098677E-2,-8.248743E-2,1.4701161E-2],"categories":[],"categories_nodes":[],"categories_segments":[],"categories_sizes":[],"default_left":[0,0,0,0,0,0,0,0,0,0,0,0,0,0,0,0,0,0,0,0,0,0,0,0,0,0,0,0,0,0,0,0,0,0,0,0,0,0,0,0,0,0,0,0,0,0,0,0,0,0,0,0,0,0,0,0,0,0,0,0,0,0,0,0,0,0,0,0,0,0,0,0,0,0,0,0,0,0,0,0,0,0,0,0,0,0,0,0,0,0,0,0,0],"id":5,"left_children":[1,3,5,7,9,11,13,15,17,19,21,23,25,27,29,31,-1,33,35,37,-1,39,41,43,45,47,-1,49,51,53,55,57,59,61,63,-1,-1,65,67,69,71,73,-1,75,-1,77,79,-1,81,83,-1,85,87,89,-1,91,-1,-1,-1,-1,-1,-1,-1,-1,-1,-1,-1,-1,-1,-1,-1,-1,-1,-1,-1,-1,-1,-1,-1,-1,-1,-1,-1,-1,-1,-1,-1,-1,-1,-1,-1,-1,-1],"loss_changes":[5.2211316E2,1.1921396E2,1.919052E2,5.5581276E1,6.136856E1,8.0381256E1,5.107397E1,3.8769424E1,3.659561E1,1.3888519E1,5.9691025E1,7.943758E1,4.648996E1,3.3250347E1,4.637827E1,2.4710995E1,0E0,2.9131424E1,1.3224131E1,1.3094635E1,0E0,3.4281235E1,4.0377377E1,3.6196045E1,5.1879623E1,1.9276306E1,0E0,1.6033943E1,3.595491E1,1.718711E1,3.9521065E1,1.8649715E1,1.2266369E1,1.2952899E1,1.7401985E1,0E0,0E0,8.852459E0,1.1572662E1,2.8964157E1,3.802105E1,2.8401112E1,0E0,2.6562164E1,0E0,5.431599E1,2.8703178E1,0E0,1.6722679E-1,1.360688E1,0E0,1.6958199E1,1.5887264E1,2.310955E0,0E0,2.7388754E1,0E0,0E0,0E0,0E0,0E0,0E0,0E0,0E0,0E0,0E0,0E0,0E0,0E0,0E0,0E0,0E0,0E0,0E0,0E0,0E0,0E0,0E0,0E0,0E0,0E0,0E0,0E0,0E0,0E0,0E0,0E0,0E0,0E0,0E0,0E0,0E0,0E0],"parents":[2147483647,0,0,1,1,2,2,3,3,4,4,5,5,6,6,7,7,8,8,9,9,10,10,11,11,12,12,13,13,14,14,15,15,17,17,18,18,19,19,21,21,22,22,23,23,24,24,25,25,27,27,28,28,29,29,30,30,31,31,32,32,33,33,34,34,37,37,38,38,39,39,40,40,41,41,43,43,45,45,46,46,48,48,49,49,51,51,52,52,53,53,55,55],"right_children":[2,4,6,8,10,12,14,16,18,20,22,24,26,28,30,32,-1,34,36,38,-1,40,42,44,46,48,-1,50,52,54,56,58,60,62,64,-1,-1,66,68,70,72,74,-1,76,-1,78,80,-1,82,84,-1,86,88,90,-1,92,-1,-1,-1,-1,-1,-1,-1,-1,-1,-1,-1,-1,-1,-1,-1,-1,-1,-1,-1,-1,-1,-1,-1,-1,-1,-1,-1,-1,-1,-1,-1,-1,-1,-1,-1,-1,-1],"split_conditions":[4.5719907E-1,-6.057748E-1,4.1765547E-1,-1.2690938E0,-1.49048E0,3.9164326E-1,-4.907655E-1,3.836557E-2,2.7561913E0,3.7536035E0,-4.4583254E-2,4.900118E-3,-1.5841182E0,-4.2887607E-1,-6.8279666E-1,-6.1969537E-1,-8.304772E-2,-7.071146E-1,-6.9241077E-1,-1.3526266E0,-6.137702E-2,9.964497E-1,7.9656875E-1,2.8568296E0,1.4182445E-1,-2.7045265E-1,-8.4170096E-2,4.4419214E-1,-1.0990111E-1,-3.934012E-1,7.321896E-1,9.200979E-1,-2.882289E-4,-1.1046183E-1,-1.8379582E0,7.75814E-2,-5.5700697E-2,1.2833816E0,-1.5216104E0,-8.491403E-1,8.5695565E-2,-9.994884E-1,-8.676784E-2,1.1663699E0,7.995658E-2,3.6163837E-1,2.0355291E0,-6.587406E-2,-3.576412E-1,1.7589271E0,-6.161601E-2,-6.6697255E-2,-2.2006323E0,4.5696288E-1,-6.0825806E-2,4.900118E-3,-8.691814E-2,6.891663E-2,-6.665505E-2,5.518165E-2,-8.05851E-2,-6.1969608E-2,6.733804E-2,5.673654E-2,-8.7478556E-2,-7.481236E-2,5.1671352E-2,-5.576999E-2,6.6684954E-2,-4.9219918E-2,4.54931E-2,3.182663E-2,-7.190441E-2,5.907774E-2,-1.1568876E-2,-8.170685E-2,4.0948972E-2,7.14162E-3,-8.2046114E-2,-7.699816E-2,6.271151E-2,8.041551E-2,3.0386796E-2,6.5230265E-2,-6.0075786E-2,6.1247982E-2,-6.7095414E-2,5.6339856E-2,-8.850799E-2,8.2808584E-2,1.8098677E-2,-8.248743E-2,1.4701161E-2],"split_indices":[106,46,46,101,106,102,203,178,168,244,332,271,31,301,296,44,0,336,101,195,0,301,192,267,307,21,0,294,137,208,364,360,37,157,143,0,0,41,204,4,366,261,0,53,0,35,123,0,48,200,0,141,123,142,0,271,0,0,0,0,0,0,0,0,0,0,0,0,0,0,0,0,0,0,0,0,0,0,0,0,0,0,0,0,0,0,0,0,0,0,0,0,0],"split_type":[0,0,0,0,0,0,0,0,0,0,0,0,0,0,0,0,0,0,0,0,0,0,0,0,0,0,0,0,0,0,0,0,0,0,0,0,0,0,0,0,0,0,0,0,0,0,0,0,0,0,0,0,0,0,0,0,0,0,0,0,0,0,0,0,0,0,0,0,0,0,0,0,0,0,0,0,0,0,0,0,0,0,0,0,0,0,0,0,0,0,0,0,0],"sum_hessian":[1.3764541E3,7.392691E2,6.37185E2,1.03223785E2,6.3604535E2,4.595481E2,1.7763692E2,4.538172E1,5.7842064E1,1.9679068E2,4.3925467E2,3.0671368E2,1.5283441E2,9.644773E1,8.118919E1,3.896793E1,6.4137893E0,4.9998295E1,7.843771E0,1.952947E2,1.4959912E0,3.5288846E2,8.63662E1,9.562682E1,2.1108685E2,9.589027E0,1.4324539E2,6.7501434E1,2.8946297E1,1.681501E1,6.437418E1,3.272145E1,6.24648E0,6.8184443E0,4.3179848E1,6.130111E0,1.7136599E0,3.7378907E0,1.915568E2,3.176555E2,3.523297E1,7.354382E1,1.2822382E1,9.253145E1,3.0953727E0,1.6954417E2,4.1542675E1,2.9309127E0,6.658115E0,6.55176E1,1.983834E0,1.6455444E1,1.2490851E1,1.4842542E1,1.9724691E0,4.1985E1,2.238918E1,3.074578E1,1.97567E0,1.5374342E0,4.7090454E0,1.9838095E0,4.834635E0,1.5447576E0,4.163509E1,2.2274952E0,1.5103954E0,1.2408888E0,1.903159E2,7.5047936E0,3.101507E2,2.1789484E1,1.3443487E1,1.8025917E1,5.5517906E1,8.846691E1,4.0645337E0,1.5131721E2,1.8226963E1,3.822999E1,3.3126867E0,4.651865E0,2.00625E0,6.4021454E1,1.4961448E0,1.4217188E1,2.2382574E0,1.5431405E0,1.0947711E1,1.2576058E1,2.2664835E0,8.1599655E0,3.3825035E1],"tree_param":{"num_deleted":"0","num_feature":"367","num_nodes":"93","size_leaf_vector":"1"}},{"base_weights":[-1.5596078E-2,-5.231546E-1,4.986282E-1,6.631028E-1,-8.2735443E-1,9.2486054E-1,1.5184833E-1,8.681829E-1,-3.7943852E-1,3.3008388E-1,-1.0307199E0,1.1567451E0,5.714073E-1,-1.0226585E0,3.3721375E-1,-7.141397E-1,1.0221225E0,-8.621671E-2,9.933885E-1,9.0604645E-1,-3.8573664E-1,-1.2880387E0,-5.0189763E-1,1.197735E0,-7.239385E-2,-5.4410666E-1,7.612646E-1,-1.4000087E0,7.173573E-1,7.2801185E-1,-4.8075266E-2,-8.463702E-2,6.596216E-2,1.1572834E0,-2.301492E-1,-6.48339E-2,7.531575E-2,-5.223109E-1,1.2417127E0,-1.0710295E0,8.6624503E-1,-1.3359882E0,9.1088474E-1,-1.0664719E-1,-1.2232862E0,1.2316396E0,-6.930264E-2,-8.858859E-2,1.2313817E0,-7.575471E-2,8.631829E-1,3.530077E-1,-8.333238E-2,7.711835E-2,-6.0764678E-2,-8.129241E-1,9.1128707E-1,-9.9641675E-1,4.7324556E-1,1.9302638E-2,6.59948E-2,-8.030223E-2,5.7906386E-2,-8.021319E-2,6.382849E-2,6.775609E-2,-5.468851E-2,-8.58625E-2,2.8122736E-2,-6.555584E-2,7.3733084E-2,-6.9399945E-2,3.5470527E-2,7.2299756E-2,-4.6133768E-2,3.1955946E-2,-3.0992085E-2,-7.124316E-2,7.611544E-2,6.329524E-2,-6.799432E-2,1.942659E-2,7.513508E-2,5.502349E-2,-1.8689343E-3,-5.912131E-2,7.286821E-2,3.7894994E-2,-8.659029E-2,-3.5945557E-2,5.27606E-2,3.398811E-2,-6.598999E-2,4.709209E-2,-1.4886892E-2],"categories":[],"categories_nodes":[],"categories_segments":[],"categories_sizes":[],"default_left":[0,0,0,0,0,0,0,0,0,0,0,0,0,0,0,0,0,0,0,0,0,0,0,0,0,0,0,0,0,0,0,0,0,0,0,0,0,0,0,0,0,0,0,0,0,0,0,0,0,0,0,0,0,0,0,0,0,0,0,0,0,0,0,0,0,0,0,0,0,0,0,0,0,0,0,0,0,0,0,0,0,0,0,0,0,0,0,0,0,0,0,0,0,0,0],"id":6,"left_children":[1,3,5,7,9,11,13,15,17,19,21,23,25,27,29,31,33,-1,35,37,39,41,43,45,-1,47,49,51,53,55,57,-1,-1,59,61,-1,-1,63,65,67,69,71,73,75,77,79,-1,-1,81,-1,83,85,-1,-1,-1,87,89,91,93,-1,-1,-1,-1,-1,-1,-1,-1,-1,-1,-1,-1,-1,-1,-1,-1,-1,-1,-1,-1,-1,-1,-1,-1,-1,-1,-1,-1,-1,-1,-1,-1,-1,-1,-1,-1],"loss_changes":[3.4476154E2,2.4043315E2,9.6847626E1,2.9456291E1,1.24982025E2,2.3449142E1,7.937559E1,2.8532936E1,4.4342644E1,3.3288155E1,6.0674194E1,2.0594467E1,2.5513771E1,3.3656406E1,4.735543E1,2.3542068E1,1.7942574E1,0E0,1.611979E1,2.201765E1,3.209187E1,3.3111176E1,4.2393635E1,1.6990768E1,0E0,4.102406E1,2.4900703E1,1.9848755E1,1.7059736E1,4.4821312E1,7.917397E1,0E0,0E0,1.1332535E1,2.2886314E1,0E0,0E0,1.9924498E1,1.1119308E1,2.6216825E1,1.9687311E1,3.252124E1,8.251347E0,3.7690643E1,3.1332893E1,1.706018E1,0E0,0E0,1.2169418E0,0E0,2.0976814E1,1.2347016E1,0E0,0E0,0E0,2.6022816E1,3.3597923E1,3.1680305E1,3.7636932E1,0E0,0E0,0E0,0E0,0E0,0E0,0E0,0E0,0E0,0E0,0E0,0E0,0E0,0E0,0E0,0E0,0E0,0E0,0E0,0E0,0E0,0E0,0E0,0E0,0E0,0E0,0E0,0E0,0E0,0E0,0E0,0E0,0E0,0E0,0E0,0E0],"parents":[2147483647,0,0,1,1,2,2,3,3,4,4,5,5,6,6,7,7,8,8,9,9,10,10,11,11,12,12,13,13,14,14,15,15,16,16,18,18,19,19,20,20,21,21,22,22,23,23,25,25,26,26,27,27,28,28,29,29,30,30,33,33,34,34,37,37,38,38,39,39,40,40,41,41,42,42,43,43,44,44,45,45,48,48,50,50,51,51,55,55,56,56,57,57,58,58],"right_children":[2,4,6,8,10,12,14,16,18,20,22,24,26,28,30,32,34,-1,36,38,40,42,44,46,-1,48,50,52,54,56,58,-1,-1,60,62,-1,-1,64,66,68,70,72,74,76,78,80,-1,-1,82,-1,84,86,-1,-1,-1,88,90,92,94,-1,-1,-1,-1,-1,-1,-1,-1,-1,-1,-1,-1,-1,-1,-1,-1,-1,-1,-1,-1,-1,-1,-1,-1,-1,-1,-1,-1,-1,-1,-1,-1,-1,-1,-1,-1],"split_conditions":[-6.9692254E-2,-1.2690938E0,-5.264386E-1,1.8424077E-1,-6.157996E-1,-4.8144108E-1,-2.16324E-1,-8.539021E-1,4.656205E-1,-1.2968032E-1,4.235796E-1,1.2742475E0,-5.6728363E-1,7.5109696E-1,-1.6652645E-1,8.857924E-2,1.5768455E-1,-8.621671E-2,2.7242124E-2,2.2219667E-1,1.0598601E0,2.2174187E0,1.11492485E-1,1.207648E-2,-7.239385E-2,1.0925739E0,-1.0158602E0,-7.753497E-1,-8.435285E-1,-3.808758E-1,-8.357593E-1,-8.463702E-2,6.596216E-2,-5.340339E-1,7.784678E-1,-6.48339E-2,7.531575E-2,6.740205E-1,2.9288575E-1,9.8555994E-1,-2.2762303E-1,1.3048667E0,-6.1784637E-1,-4.1123298E-1,3.3857038E0,2.7156513E0,-6.930264E-2,-8.858859E-2,-2.5128466E-1,-7.575471E-2,-2.9564584E-2,4.0784857E-1,-8.333238E-2,7.711835E-2,-6.0764678E-2,-1.8539166E-1,-5.813339E-1,-1.7044778E0,1.3495446E-2,1.9302638E-2,6.59948E-2,-8.030223E-2,5.7906386E-2,-8.021319E-2,6.382849E-2,6.775609E-2,-5.468851E-2,-8.58625E-2,2.8122736E-2,-6.555584E-2,7.3733084E-2,-6.9399945E-2,3.5470527E-2,7.2299756E-2,-4.6133768E-2,3.1955946E-2,-3.0992085E-2,-7.124316E-2,7.611544E-2,6.329524E-2,-6.799432E-2,1.942659E-2,7.513508E-2,5.502349E-2,-1.8689343E-3,-5.912131E-2,7.286821E-2,3.7894994E-2,-8.659029E-2,-3.5945557E-2,5.27606E-2,3.398811E-2,-6.598999E-2,4.709209E-2,-1.4886892E-2],"split_indices":[46,101,101,151,331,331,105,116,233,226,145,238,5,256,306,217,297,0,87,257,226,166,336,317,0,99,161,295,246,117,242,0,0,165,332,0,0,137,303,172,166,293,136,241,262,194,0,0,125,0,148,223,0,0,0,362,26,277,366,0,0,0,0,0,0,0,0,0,0,0,0,0,0,0,0,0,0,0,0,0,0,0,0,0,0,0,0,0,0,0,0,0,0,0,0],"split_type":[0,0,0,0,0,0,0,0,0,0,0,0,0,0,0,0,0,0,0,0,0,0,0,0,0,0,0,0,0,0,0,0,0,0,0,0,0,0,0,0,0,0,0,0,0,0,0,0,0,0,0,0,0,0,0,0,0,0,0,0,0,0,0,0,0,0,0,0,0,0,0,0,0,0,0,0,0,0,0,0,0,0,0,0,0,0,0,0,0,0,0,0,0,0,0],"sum_hessian":[1.3189314E3,6.637591E2,6.5517236E2,1.3523134E2,5.285278E2,2.9316806E2,3.6200427E2,1.1314219E2,2.2089151E1,7.889277E1,4.49635E2,1.7565567E2,1.175124E2,4.872942E1,3.1327484E2,9.708706E0,1.0343348E2,1.1028748E1,1.1060404E1,4.356988E1,3.5322887E1,3.014952E2,1.4813979E2,1.7346593E2,2.1897428E0,1.6819996E1,1.006924E2,4.0205597E1,8.52382E0,1.5508394E2,1.5819092E2,6.6674194E0,3.0412865E0,9.342565E1,1.0007827E1,1.744358E0,9.316047E0,8.184866E0,3.5385017E1,2.292115E1,1.2401737E1,2.9544522E2,6.050006E0,9.6445114E1,5.1694664E1,1.7173572E2,1.7302089E0,9.9453535E0,6.874642E0,3.7208529E0,9.697155E1,5.2652593E0,3.494034E1,6.115275E0,2.408545E0,1.6119484E1,1.3896445E2,5.579045E1,1.0240047E2,1.6855984E1,7.656967E1,4.947545E0,5.0602818E0,5.1784363E0,3.0064292E0,3.4146652E1,1.2383637E0,1.6387022E1,6.5341287E0,2.456305E0,9.945432E0,2.884323E2,7.012889E0,4.84686E0,1.2031457E0,3.9214237E1,5.723088E1,4.860705E1,3.0876138E0,1.6999951E2,1.7362027E0,2.2663326E0,4.6083093E0,7.657342E1,2.0398132E1,2.1731472E0,3.0921118E0,6.0139155E0,1.0105568E1,1.0949336E1,1.2801512E2,8.844593E0,4.6945858E1,6.3552353E1,3.8848114E1],"tree_param":{"num_deleted":"0","num_feature":"367","num_nodes":"95","size_leaf_vector":"1"}},{"base_weights":[1.9178731E-2,5.604901E-1,-6.181682E-1,9.1067815E-1,1.4398713E-1,3.8492745E-1,-8.289008E-1,1.0915992E-1,1.0041932E0,-2.3435277E-1,7.4671286E-1,-1.0056435E-1,1.1140015E0,-4.5999056E-1,-1.3793807E0,5.1203513E-1,-8.243852E-2,1.188646E0,6.610093E-1,3.3355698E-1,-6.63527E-1,-9.721852E-1,8.7221605E-1,4.8059222E-1,-1.0604593E0,1.2538091E0,-6.0839176E-2,2.4138236E-1,-8.5258144E-1,3.2805467E-1,-1.4581285E0,-1.0960188E0,1.0324355E0,-6.886356E-1,1.2290076E0,8.0693537E-1,-6.545358E-1,5.3926367E-1,-8.546181E-2,-2.2973165E-1,-1.371667E0,-7.4024566E-2,4.9857065E-2,9.437068E-1,-7.364346E-2,8.4452E-1,-7.835863E-2,8.642673E-1,-8.433102E-2,1.3881599E0,-5.764801E-2,8.1632644E-1,-4.6868446E-1,-4.64004E-1,-1.4166211E0,8.348074E-2,-6.4747974E-2,-1.5123569E0,2.8606147E-1,4.845388E-2,-8.1098095E-2,6.584664E-2,-6.4899504E-2,-7.7756874E-2,4.889169E-2,-6.068507E-2,6.253975E-2,1.648427E-2,5.9354484E-2,6.7103535E-2,-9.1399014E-2,3.835351E-2,-5.521075E-2,2.9315976E-3,-8.435487E-2,-8.0320835E-2,3.359231E-2,-6.903592E-3,5.368904E-2,7.5192206E-2,6.075137E-3,7.336923E-2,-5.1751036E-2,-4.8644617E-2,7.512857E-2,6.2098682E-2,-2.7716104E-2,2.905362E-2,-7.157056E-2,-7.0517816E-2,-7.698898E-3,-7.7746175E-2,5.2922994E-2,1.0067551E-2,-7.834156E-2,-6.0167547E-2,7.6635204E-2],"categories":[],"categories_nodes":[],"categories_segments":[],"categories_sizes":[],"default_left":[0,0,0,0,0,0,0,0,0,0,0,0,0,0,0,0,0,0,0,0,0,0,0,0,0,0,0,0,0,0,0,0,0,0,0,0,0,0,0,0,0,0,0,0,0,0,0,0,0,0,0,0,0,0,0,0,0,0,0,0,0,0,0,0,0,0,0,0,0,0,0,0,0,0,0,0,0,0,0,0,0,0,0,0,0,0,0,0,0,0,0,0,0,0,0,0,0],"id":7,"left_children":[1,3,5,7,9,11,13,15,17,19,21,23,25,27,29,31,-1,33,35,37,39,41,43,45,47,49,-1,51,53,55,57,59,61,63,65,67,69,71,-1,73,75,-1,-1,77,-1,79,-1,81,-1,83,-1,85,87,89,91,-1,-1,93,95,-1,-1,-1,-1,-1,-1,-1,-1,-1,-1,-1,-1,-1,-1,-1,-1,-1,-1,-1,-1,-1,-1,-1,-1,-1,-1,-1,-1,-1,-1,-1,-1,-1,-1,-1,-1,-1,-1],"loss_changes":[4.6336972E2,1.05794464E2,1.3071024E2,2.9447845E1,7.60881E1,3.8259235E1,1.0294919E2,3.0818933E1,2.1560791E1,5.0255035E1,2.859465E1,3.711045E1,1.5590519E1,8.4711945E1,2.7930023E1,3.0584324E1,0E0,1.8148895E1,2.4651768E1,3.8331333E1,3.5704754E1,1.0710542E1,2.157431E1,3.2292526E1,3.1653353E1,1.4926521E1,0E0,4.566438E1,4.2516357E1,2.3538443E1,1.890979E1,1.1444953E1,1.9680155E1,9.386446E0,1.3434601E1,2.0212128E1,3.3143764E1,3.1412731E1,0E0,3.1161705E1,2.2350754E1,0E0,0E0,1.6673698E1,0E0,1.6947512E1,0E0,9.321094E0,0E0,1.2128532E1,0E0,3.665872E1,5.162819E1,3.4438675E1,2.8984009E1,0E0,0E0,1.8016937E1,1.434303E1,0E0,0E0,0E0,0E0,0E0,0E0,0E0,0E0,0E0,0E0,0E0,0E0,0E0,0E0,0E0,0E0,0E0,0E0,0E0,0E0,0E0,0E0,0E0,0E0,0E0,0E0,0E0,0E0,0E0,0E0,0E0,0E0,0E0,0E0,0E0,0E0,0E0,0E0],"parents":[2147483647,0,0,1,1,2,2,3,3,4,4,5,5,6,6,7,7,8,8,9,9,10,10,11,11,12,12,13,13,14,14,15,15,17,17,18,18,19,19,20,20,21,21,22,22,23,23,24,24,25,25,27,27,28,28,29,29,30,30,31,31,32,32,33,33,34,34,35,35,36,36,37,37,39,39,40,40,43,43,45,45,47,47,49,49,51,51,52,52,53,53,54,54,57,57,58,58],"right_children":[2,4,6,8,10,12,14,16,18,20,22,24,26,28,30,32,-1,34,36,38,40,42,44,46,48,50,-1,52,54,56,58,60,62,64,66,68,70,72,-1,74,76,-1,-1,78,-1,80,-1,82,-1,84,-1,86,88,90,92,-1,-1,94,96,-1,-1,-1,-1,-1,-1,-1,-1,-1,-1,-1,-1,-1,-1,-1,-1,-1,-1,-1,-1,-1,-1,-1,-1,-1,-1,-1,-1,-1,-1,-1,-1,-1,-1,-1,-1,-1,-1],"split_conditions":[4.5719907E-1,-9.340002E-1,-6.364412E-1,-8.586015E-1,8.9722675E-1,6.462283E-1,3.990555E-3,-3.1726837E-1,-1.8425412E-1,1.1210016E-2,-5.763041E-1,-2.8012425E-1,5.082028E-1,-4.828674E-1,-1.4041882E0,-3.3482E-2,-8.243852E-2,-1.7523184E0,1.23658404E-1,9.6102893E-1,-1.4654578E-1,-1.928297E-1,1.3622639E0,2.4845578E-1,-5.2988E-1,4.002142E-1,-6.0839176E-2,-1.5577872E-1,-3.964997E-1,-5.166598E-1,2.3682144E0,-1.3094563E0,7.320081E-2,1.3414061E0,-2.4076085E0,-1.221721E-2,-2.5971057E0,5.486814E-1,-8.546181E-2,3.8711262E-1,3.1255424E0,-7.4024566E-2,4.9857065E-2,-7.836696E-1,-7.364346E-2,-6.995307E-1,-7.835863E-2,-2.8472017E-2,-8.433102E-2,-8.586015E-1,-5.764801E-2,4.5211297E-1,2.814851E-1,-5.798194E-1,2.7051246E0,8.348074E-2,-6.4747974E-2,-7.9781383E-1,3.8160998E-1,4.845388E-2,-8.1098095E-2,6.584664E-2,-6.4899504E-2,-7.7756874E-2,4.889169E-2,-6.068507E-2,6.253975E-2,1.648427E-2,5.9354484E-2,6.7103535E-2,-9.1399014E-2,3.835351E-2,-5.521075E-2,2.9315976E-3,-8.435487E-2,-8.0320835E-2,3.359231E-2,-6.903592E-3,5.368904E-2,7.5192206E-2,6.075137E-3,7.336923E-2,-5.1751036E-2,-4.8644617E-2,7.512857E-2,6.2098682E-2,-2.7716104E-2,2.905362E-2,-7.157056E-2,-7.0517816E-2,-7.698898E-3,-7.7746175E-2,5.2922994E-2,1.0067551E-2,-7.834156E-2,-6.0167547E-2,7.6635204E-2],"split_indices":[106,106,331,166,362,346,307,118,108,301,44,115,132,301,226,361,0,193,7,222,131,76,170,122,7,309,0,131,218,140,206,7,207,45,362,44,101,136,0,232,100,0,0,47,0,301,0,200,0,166,0,274,253,232,266,0,0,334,113,0,0,0,0,0,0,0,0,0,0,0,0,0,0,0,0,0,0,0,0,0,0,0,0,0,0,0,0,0,0,0,0,0,0,0,0,0,0],"split_type":[0,0,0,0,0,0,0,0,0,0,0,0,0,0,0,0,0,0,0,0,0,0,0,0,0,0,0,0,0,0,0,0,0,0,0,0,0,0,0,0,0,0,0,0,0,0,0,0,0,0,0,0,0,0,0,0,0,0,0,0,0,0,0,0,0,0,0,0,0,0,0,0,0,0,0,0,0,0,0,0,0,0,0,0,0,0,0,0,0,0,0,0,0,0,0,0,0],"sum_hessian":[1.3410844E3,7.252423E2,6.1584204E2,3.933415E2,3.3190082E2,1.067728E2,5.0906927E2,4.1323612E1,3.5201788E2,2.0428146E2,1.2761934E2,6.4610565E1,4.216223E1,3.0590155E2,2.0316771E2,3.4195545E1,7.1280656E0,2.2735602E2,1.2466185E2,8.8024635E1,1.1625683E2,8.224866E0,1.1939447E2,4.055585E1,2.4054712E1,4.0212246E1,1.9499876E0,1.0991714E2,1.959844E2,8.81751E0,1.943502E2,8.090264E0,2.6105282E1,4.447221E0,2.229088E2,1.1256253E2,1.2099319E1,8.064028E1,7.3843594E0,7.2914795E1,4.334203E1,6.7347684E0,1.4900975E0,1.1644227E2,2.952202E0,3.4934837E1,5.6210127E0,5.811318E0,1.8243395E1,3.8487045E1,1.725198E0,6.0654934E1,4.92622E1,1.1712053E2,7.886388E1,4.811599E0,4.005911E0,1.8861879E2,5.7314124E0,1.4711794E0,6.619085E0,2.3652672E1,2.45261E0,2.969828E0,1.4773927E0,1.4869977E0,2.214218E2,5.0735653E1,6.1826878E1,4.425561E0,7.673759E0,7.129164E1,9.3486395E0,6.1671795E1,1.1243002E1,3.9067974E1,4.2740593E0,1.2491706E1,1.0395056E2,1.7707394E1,1.7227444E1,4.583298E0,1.2280196E0,1.4320058E0,3.7055042E1,4.6353878E1,1.4301059E1,2.375557E1,2.5506632E1,2.8025066E1,8.909547E1,7.504243E1,3.8214493E0,5.7279096E0,1.8289088E2,2.6272554E0,3.1041572E0],"tree_param":{"num_deleted":"0","num_feature":"367","num_nodes":"97","size_leaf_vector":"1"}},{"base_weights":[2.3329368E-2,-3.2061377E-1,6.431251E-1,6.6379726E-1,-6.0573965E-1,-1.2509736E0,6.9760996E-1,-8.036257E-2,7.286467E-1,-8.864343E-1,-8.7418154E-2,-8.014966E-2,4.909525E-2,1.1463234E0,4.860054E-1,8.71919E-1,-2.8999797E-1,5.097444E-1,-9.961222E-1,1.1236331E-1,-1.1386069E0,1.1794276E0,-6.3579E-2,6.7400056E-1,-4.240024E-1,-8.0052143E-1,9.3872166E-1,1.2696371E0,-1.1355915E0,8.764037E-1,-6.9668524E-2,-1.0888183E0,4.0646273E-1,4.224048E-1,-5.093569E-1,-5.840853E-2,-8.295719E-2,-5.7290044E-2,1.2112458E0,1.0736141E0,2.898685E-1,6.491842E-2,-8.468039E-2,5.3345967E-2,-7.650768E-2,7.3722266E-3,5.3662926E-2,2.353774E-2,7.1274854E-2,4.952432E-2,-9.081981E-2,-1.5726117E-2,6.747647E-2,3.55275E-2,-5.735867E-2,-2.1237468E-2,7.3646456E-2,-1.4632109E-2,3.7634086E-2,3.199869E-2,-5.0717294E-2,3.952756E-2,-7.3225744E-2,6.2173612E-2,-5.686162E-2,-6.750992E-2,5.587087E-2,2.8429974E-2,-4.8083942E-2,2.7823467E-2,-6.264224E-2],"categories":[],"categories_nodes":[],"categories_segments":[],"categories_sizes":[],"default_left":[0,0,0,0,0,0,0,0,0,0,0,0,0,0,0,0,0,0,0,0,0,0,0,0,0,0,0,0,0,0,0,0,0,0,0,0,0,0,0,0,0,0,0,0,0,0,0,0,0,0,0,0,0,0,0,0,0,0,0,0,0,0,0,0,0,0,0,0,0,0,0],"id":8,"left_children":[1,3,5,7,9,11,13,-1,15,17,19,-1,-1,21,23,25,27,29,31,33,35,37,-1,39,41,43,45,47,49,51,-1,53,55,57,59,61,-1,-1,63,65,67,69,-1,-1,-1,-1,-1,-1,-1,-1,-1,-1,-1,-1,-1,-1,-1,-1,-1,-1,-1,-1,-1,-1,-1,-1,-1,-1,-1,-1,-1],"loss_changes":[2.841371E2,2.4101437E2,4.9961975E1,2.9596329E1,9.67081E1,1.230974E1,4.3406036E1,0E0,2.7739273E1,6.6578735E1,4.94395E1,0E0,0E0,1.33173065E1,5.441005E1,1.922631E1,3.305848E1,2.3611322E1,5.249289E1,3.8423676E1,2.103872E1,1.2201843E1,0E0,3.9997772E1,3.411508E1,1.1022037E1,1.681842E1,4.3715858E-1,2.5064085E1,1.5929443E1,0E0,4.027472E1,2.3271542E1,3.1584854E1,3.919362E1,1.6986473E1,0E0,0E0,1.2363846E1,1.5133911E1,4.7731308E1,2.6940056E1,0E0,0E0,0E0,0E0,0E0,0E0,0E0,0E0,0E0,0E0,0E0,0E0,0E0,0E0,0E0,0E0,0E0,0E0,0E0,0E0,0E0,0E0,0E0,0E0,0E0,0E0,0E0,0E0,0E0],"parents":[2147483647,0,0,1,1,2,2,3,3,4,4,5,5,6,6,8,8,9,9,10,10,13,13,14,14,15,15,16,16,17,17,18,18,19,19,20,20,21,21,23,23,24,24,25,25,26,26,27,27,28,28,29,29,31,31,32,32,33,33,34,34,35,35,38,38,39,39,40,40,41,41],"right_children":[2,4,6,8,10,12,14,-1,16,18,20,-1,-1,22,24,26,28,30,32,34,36,38,-1,40,42,44,46,48,50,52,-1,54,56,58,60,62,-1,-1,64,66,68,70,-1,-1,-1,-1,-1,-1,-1,-1,-1,-1,-1,-1,-1,-1,-1,-1,-1,-1,-1,-1,-1,-1,-1,-1,-1,-1,-1,-1,-1],"split_conditions":[2.7145118E-1,-1.2322557E0,-8.72419E-1,-1.3526266E0,9.0006644E-1,1.4935033E0,-8.277794E-1,-8.036257E-2,3.5145405E-1,-1.2337368E0,9.5296043E-1,-8.014966E-2,4.909525E-2,2.4264656E-1,-1.17198735E-1,-1.0011462E0,6.1404865E-2,3.5699138E-1,2.4007834E-1,1.9994949E-1,-1.6548645E-2,-1.999414E0,-6.3579E-2,5.8024615E-1,9.379341E-1,-1.5699391E-1,-8.507143E-1,-9.2627877E-1,-5.548181E-1,2.3442434E-2,-6.9668524E-2,-1.839668E0,6.796592E-1,-4.3164843E-1,-5.313691E-2,-2.5858635E-1,-8.295719E-2,-5.7290044E-2,1.4793551E0,-6.576876E-1,2.6685897E-1,-9.27452E-2,-8.468039E-2,5.3345967E-2,-7.650768E-2,7.3722266E-3,5.3662926E-2,2.353774E-2,7.1274854E-2,4.952432E-2,-9.081981E-2,-1.5726117E-2,6.747647E-2,3.55275E-2,-5.735867E-2,-2.1237468E-2,7.3646456E-2,-1.4632109E-2,3.7634086E-2,3.199869E-2,-5.0717294E-2,3.952756E-2,-7.3225744E-2,6.2173612E-2,-5.686162E-2,-6.750992E-2,5.587087E-2,2.8429974E-2,-4.8083942E-2,2.7823467E-2,-6.264224E-2],"split_indices":[46,101,275,195,99,141,241,0,77,33,364,0,0,149,332,116,323,301,3,303,350,147,0,104,364,17,166,31,304,117,0,301,237,43,356,332,0,0,251,42,329,261,0,0,0,0,0,0,0,0,0,0,0,0,0,0,0,0,0,0,0,0,0,0,0,0,0,0,0,0,0],"split_type":[0,0,0,0,0,0,0,0,0,0,0,0,0,0,0,0,0,0,0,0,0,0,0,0,0,0,0,0,0,0,0,0,0,0,0,0,0,0,0,0,0,0,0,0,0,0,0,0,0,0,0,0,0,0,0,0,0,0,0,0,0,0,0,0,0,0,0,0,0,0,0],"sum_hessian":[1.3309177E3,8.562447E2,4.74673E2,1.9200609E2,6.642386E2,1.2658425E1,4.620146E2,4.670189E0,1.873359E2,4.304306E2,2.3380798E2,1.1178241E1,1.480185E0,1.4664096E2,3.1537363E2,1.6436238E2,2.2973516E1,3.108704E1,3.9934354E2,1.9721906E2,3.6588943E1,1.4516566E2,1.4752867E0,2.615917E2,5.378192E1,5.891141E0,1.5847125E2,7.9003778E0,1.5073139E1,2.6517582E1,4.569459E0,3.747971E2,2.4546465E1,1.3180879E2,6.5410255E1,1.225989E1,2.4329052E1,1.486998E0,1.4367867E2,1.2733249E2,1.3425922E2,3.9514057E1,1.4267865E1,1.5252087E0,4.3659325E0,2.3333206E1,1.3513805E2,1.9460404E0,5.954337E0,3.5456357E0,1.1527504E1,7.634829E0,1.8882753E1,1.1422107E1,3.6337497E2,1.4132898E1,1.0413567E1,4.168185E1,9.0126945E1,1.9885197E1,4.552506E1,7.917402E0,4.3424883E0,1.421979E2,1.480758E0,1.7308935E0,1.2560159E2,1.10251E2,2.4008217E1,2.9199718E1,1.0314338E1],"tree_param":{"num_deleted":"0","num_feature":"367","num_nodes":"71","size_leaf_vector":"1"}},{"base_weights":[3.4573484E-2,6.5304255E-1,-4.3593064E-1,-8.254376E-3,8.0843633E-1,-7.801188E-1,3.659982E-1,4.6497506E-1,-7.816001E-1,1.0286964E0,5.1233137E-1,-1.427732E0,-5.411103E-1,-5.0841216E-2,8.4388196E-1,1.0431457E0,-1.0192328E-1,-8.192979E-2,1.139045E-1,1.0723057E0,-8.7226844E-1,8.914994E-1,-8.119132E-2,6.480944E-1,-1.5039477E0,2.6340178E-1,-7.401875E-1,-5.9358853E-1,6.775053E-1,9.763799E-1,-9.7942793E-1,1.2690612E0,-6.625167E-2,7.234748E-1,-8.623938E-2,9.968992E-1,-9.743118E-1,1.2084905E0,4.3314013E-1,-8.092799E-2,4.886704E-2,-7.233298E-2,9.622145E-1,-6.4543974E-1,9.1444176E-1,7.377168E-2,-4.6275344E-2,-7.6929584E-2,3.8608115E-2,-7.306699E-2,4.9187782E-1,1.8918294E-1,-8.962513E-1,9.770945E-1,-9.1245955E-1,-1.8997446E-1,1.2037293E0,1.050109E0,-6.6944934E-2,-7.8302994E-2,4.5836095E-2,-5.3944815E-2,7.007777E-2,5.2167285E-2,-6.710042E-2,6.533813E-2,-5.0236017E-2,5.223907E-2,-7.268132E-2,6.1764713E-2,-6.478865E-2,-9.046341E-2,4.18258E-2,1.692871E-3,5.6495752E-2,-4.7247507E-2,6.464517E-2,-7.48116E-2,6.1147112E-2,-7.107377E-2,3.4363497E-2,3.7861373E-2,-3.8221214E-2,-5.7771828E-2,-9.486589E-3,-5.882749E-2,7.473959E-2,-6.764724E-2,1.3486496E-2,-7.985811E-2,4.351082E-2,-6.1784185E-2,6.996168E-2,1.32624125E-2,6.2341806E-2],"categories":[],"categories_nodes":[],"categories_segments":[],"categories_sizes":[],"default_left":[0,0,0,0,0,0,0,0,0,0,0,0,0,0,0,0,0,0,0,0,0,0,0,0,0,0,0,0,0,0,0,0,0,0,0,0,0,0,0,0,0,0,0,0,0,0,0,0,0,0,0,0,0,0,0,0,0,0,0,0,0,0,0,0,0,0,0,0,0,0,0,0,0,0,0,0,0,0,0,0,0,0,0,0,0,0,0,0,0,0,0,0,0,0,0],"id":9,"left_children":[1,3,5,7,9,11,13,15,17,19,21,23,25,27,29,31,33,-1,35,37,39,41,43,45,47,49,51,53,55,57,59,61,-1,63,-1,65,67,69,71,-1,-1,-1,73,75,77,-1,-1,-1,-1,-1,79,81,83,85,87,89,91,93,-1,-1,-1,-1,-1,-1,-1,-1,-1,-1,-1,-1,-1,-1,-1,-1,-1,-1,-1,-1,-1,-1,-1,-1,-1,-1,-1,-1,-1,-1,-1,-1,-1,-1,-1,-1,-1],"loss_changes":[3.827808E2,5.8408707E1,2.0650372E2,4.0300556E1,2.9487274E1,8.019226E1,4.4872902E1,2.2501347E1,3.2265877E1,2.2730011E1,4.4697536E1,2.3187073E1,6.1645462E1,4.8291786E1,2.629956E1,1.9826908E1,4.868071E1,0E0,2.1511076E1,2.1886902E1,1.0481496E1,2.1411758E1,4.452985E1,8.748734E0,1.1890503E1,3.1001167E1,4.48183E1,3.5925713E1,2.4055098E1,1.8185852E1,9.896172E0,1.1303135E1,0E0,1.737358E1,0E0,8.938569E0,1.1274845E1,1.5809265E1,4.3826927E1,0E0,0E0,0E0,1.8352325E1,3.0544641E1,2.3178213E1,0E0,0E0,0E0,0E0,0E0,2.6625484E1,2.5001673E1,4.8078293E1,1.5458238E1,3.0912796E1,3.2079613E1,1.7287865E1,1.4464973E1,0E0,0E0,0E0,0E0,0E0,0E0,0E0,0E0,0E0,0E0,0E0,0E0,0E0,0E0,0E0,0E0,0E0,0E0,0E0,0E0,0E0,0E0,0E0,0E0,0E0,0E0,0E0,0E0,0E0,0E0,0E0,0E0,0E0,0E0,0E0,0E0,0E0],"parents":[2147483647,0,0,1,1,2,2,3,3,4,4,5,5,6,6,7,7,8,8,9,9,10,10,11,11,12,12,13,13,14,14,15,15,16,16,18,18,19,19,20,20,21,21,22,22,23,23,24,24,25,25,26,26,27,27,28,28,29,29,30,30,31,31,33,33,35,35,36,36,37,37,38,38,42,42,43,43,44,44,50,50,51,51,52,52,53,53,54,54,55,55,56,56,57,57],"right_children":[2,4,6,8,10,12,14,16,18,20,22,24,26,28,30,32,34,-1,36,38,40,42,44,46,48,50,52,54,56,58,60,62,-1,64,-1,66,68,70,72,-1,-1,-1,74,76,78,-1,-1,-1,-1,-1,80,82,84,86,88,90,92,94,-1,-1,-1,-1,-1,-1,-1,-1,-1,-1,-1,-1,-1,-1,-1,-1,-1,-1,-1,-1,-1,-1,-1,-1,-1,-1,-1,-1,-1,-1,-1,-1,-1,-1,-1,-1,-1],"split_conditions":[-3.7752047E-1,-4.855664E-1,4.1765547E-1,-1.209586E0,-4.8144108E-1,9.1273984E-4,-1.7874181E-1,-7.194925E-1,9.503135E-2,9.149424E-1,-1.9544901E-1,-1.6954935E0,-6.3213515E-1,3.1018147E-1,2.3673639E-1,1.7667757E0,-4.1943106E-1,-8.192979E-2,-3.7225807E-1,3.1852543E-1,1.2662388E0,-1.0624746E0,1.3990006E-1,-5.8458084E-1,1.2587142E0,-8.360344E-1,-6.364412E-1,-1.1492866E0,-5.1701057E-1,1.2318802E0,1.6919522E0,-6.423665E-1,-6.625167E-2,1.2564807E-1,-8.623938E-2,1.328881E0,-6.618733E-1,3.4505367E0,-7.008568E-1,-8.092799E-2,4.886704E-2,-7.233298E-2,-8.964236E-1,2.538786E0,-4.908147E-1,7.377168E-2,-4.6275344E-2,-7.6929584E-2,3.8608115E-2,-7.306699E-2,-5.530714E-1,2.653243E-1,6.3133043E-1,-9.314095E-2,6.524697E-1,1.3823622E-1,-5.213895E-1,-5.280169E-1,-6.6944934E-2,-7.8302994E-2,4.5836095E-2,-5.3944815E-2,7.007777E-2,5.2167285E-2,-6.710042E-2,6.533813E-2,-5.0236017E-2,5.223907E-2,-7.268132E-2,6.1764713E-2,-6.478865E-2,-9.046341E-2,4.18258E-2,1.692871E-3,5.6495752E-2,-4.7247507E-2,6.464517E-2,-7.48116E-2,6.1147112E-2,-7.107377E-2,3.4363497E-2,3.7861373E-2,-3.8221214E-2,-5.7771828E-2,-9.486589E-3,-5.882749E-2,7.473959E-2,-6.764724E-2,1.3486496E-2,-7.985811E-2,4.351082E-2,-6.1784185E-2,6.996168E-2,1.32624125E-2,6.2341806E-2],"split_indices":[106,43,46,101,331,257,248,195,136,198,72,141,307,341,253,340,107,0,334,206,147,215,328,71,27,192,331,226,19,278,78,140,0,297,0,131,11,280,166,0,0,0,91,57,208,0,0,0,0,0,197,339,141,116,237,136,153,142,0,0,0,0,0,0,0,0,0,0,0,0,0,0,0,0,0,0,0,0,0,0,0,0,0,0,0,0,0,0,0,0,0,0,0,0,0],"split_type":[0,0,0,0,0,0,0,0,0,0,0,0,0,0,0,0,0,0,0,0,0,0,0,0,0,0,0,0,0,0,0,0,0,0,0,0,0,0,0,0,0,0,0,0,0,0,0,0,0,0,0,0,0,0,0,0,0,0,0,0,0,0,0,0,0,0,0,0,0,0,0,0,0,0,0,0,0,0,0,0,0,0,0,0,0,0,0,0,0,0,0,0,0,0,0],"sum_hessian":[1.3134548E3,5.673265E2,7.461283E2,1.0812679E2,4.591997E2,5.22079E2,2.240493E2,6.7326675E1,4.0800114E1,2.619052E2,1.972945E2,1.3939723E2,3.8268173E2,1.2014505E2,1.0390425E2,3.291604E1,3.4410637E1,2.0424305E1,2.037581E1,2.5645786E2,5.4473696E0,1.20080086E2,7.721441E1,4.671097E0,1.3472614E2,7.584668E1,3.0683508E2,6.895005E1,5.1194996E1,9.72982E1,6.6060524E0,3.0473135E1,2.4429045E0,2.317692E1,1.1233716E1,1.1294888E1,9.080923E0,2.1067854E2,4.577931E1,3.970319E0,1.4770504E0,2.9538836E0,1.171262E2,4.9508514E1,2.7705896E1,3.1023726E0,1.5687242E0,1.3302542E2,1.7007087E0,8.240908E0,6.7605774E1,4.4086246E1,2.627488E2,1.1287293E1,5.766276E1,1.9571077E1,3.1623919E1,9.4824974E1,2.4732215E0,5.1781254E0,1.4279269E0,1.2461889E0,2.9226946E1,2.049745E1,2.6794703E0,1.0081375E1,1.2135125E0,1.5158259E0,7.565097E0,2.0894884E2,1.7296997E0,6.4481363E0,3.933117E1,1.8104591E1,9.902161E1,4.3326286E1,6.1822276E0,2.7065396E0,2.4999355E1,5.682786E0,6.1922985E1,2.775756E1,1.6328686E1,1.9176488E2,7.098394E1,1.940803E0,9.34649E0,4.190461E1,1.5758149E1,8.191732E0,1.1379344E1,1.951648E0,2.9672272E1,1.9475193E1,7.5349785E1],"tree_param":{"num_deleted":"0","num_feature":"367","num_nodes":"95","size_leaf_vector":"1"}},{"base_weights":[2.8625156E-3,6.082131E-1,-4.5093212E-1,9.994464E-1,3.3789715E-1,-8.735058E-2,-9.742657E-1,-8.3041155E-1,1.0460756E0,5.3890586E-1,-4.4020385E-1,-2.5958312E-1,7.3241174E-1,-1.2230418E0,-8.28543E-2,-7.732919E-2,4.5162745E-2,1.074815E0,-6.95395E-2,6.876581E-1,-3.810093E-1,4.938896E-1,-1.0825187E0,-1.03396304E-1,-1.2321539E0,9.351785E-1,-7.089731E-2,6.014443E-1,-1.3231012E0,-1.1702245E0,7.8873134E-1,1.8217006E-1,1.1610023E0,-1.0419998E0,7.5068307E-1,-1.5720909E0,9.9104774E-1,-7.266199E-2,8.2285714E-1,-1.5502056E0,6.31085E-1,3.5360512E-1,-4.4991642E-1,-7.69603E-2,7.397804E-1,1.1219778E0,-7.8686136E-1,1.4061089E0,-6.1643034E-2,6.8548255E-2,-1.4286076E0,7.199569E-2,-7.752167E-2,1.2458128E0,-6.847864E-2,5.2980036E-2,-5.623092E-2,6.0563065E-2,-1.2246453E-3,-7.910194E-2,4.561444E-2,-3.3667143E-2,4.089672E-2,4.9531437E-2,-9.15506E-2,-5.7974588E-2,6.440405E-2,-6.241394E-2,5.39998E-2,-8.6025886E-2,4.2738974E-2,6.6088356E-2,-5.8311116E-2,-9.816518E-3,3.723971E-2,2.1417348E-2,-4.046602E-2,-4.821946E-2,7.3015325E-2,-5.9953492E-2,6.165103E-2,4.932935E-2,-7.003538E-2,8.517767E-2,1.542532E-2,-4.7238134E-2,6.615059E-2,-7.2620146E-2,4.2887755E-2,-5.7220574E-2,7.4885346E-2],"categories":[],"categories_nodes":[],"categories_segments":[],"categories_sizes":[],"default_left":[0,0,0,0,0,0,0,0,0,0,0,0,0,0,0,0,0,0,0,0,0,0,0,0,0,0,0,0,0,0,0,0,0,0,0,0,0,0,0,0,0,0,0,0,0,0,0,0,0,0,0,0,0,0,0,0,0,0,0,0,0,0,0,0,0,0,0,0,0,0,0,0,0,0,0,0,0,0,0,0,0,0,0,0,0,0,0,0,0,0,0],"id":10,"left_children":[1,3,5,7,9,11,13,15,17,19,21,23,25,27,29,-1,-1,31,-1,33,35,37,39,41,43,45,-1,47,49,51,53,55,57,59,61,63,65,-1,67,69,71,73,75,-1,77,79,81,83,-1,85,87,-1,-1,89,-1,-1,-1,-1,-1,-1,-1,-1,-1,-1,-1,-1,-1,-1,-1,-1,-1,-1,-1,-1,-1,-1,-1,-1,-1,-1,-1,-1,-1,-1,-1,-1,-1,-1,-1,-1,-1],"loss_changes":[3.5090094E2,5.7542206E1,1.388309E2,1.9906265E1,5.1096176E1,6.1168728E1,6.62478E1,8.972969E0,1.6763565E1,3.5685158E1,4.091817E1,5.419964E1,3.4135616E1,4.348459E1,6.3807934E1,0E0,0E0,1.640947E1,0E0,2.5112572E1,6.1495407E1,1.920249E1,3.3192825E1,4.9131634E1,3.1047134E1,2.3196262E1,0E0,2.0692793E1,3.269278E1,3.1929527E1,3.8629974E1,2.4363243E1,1.1757263E1,1.0166525E1,2.122937E1,1.5097675E1,1.2772257E1,0E0,1.4495722E1,1.4523384E1,1.3122325E1,2.8957043E1,5.6003647E1,0E0,1.0409501E1,1.7713303E1,9.411581E0,2.5418587E0,0E0,2.2349129E1,1.247467E1,0E0,0E0,2.0625858E1,0E0,0E0,0E0,0E0,0E0,0E0,0E0,0E0,0E0,0E0,0E0,0E0,0E0,0E0,0E0,0E0,0E0,0E0,0E0,0E0,0E0,0E0,0E0,0E0,0E0,0E0,0E0,0E0,0E0,0E0,0E0,0E0,0E0,0E0,0E0,0E0,0E0],"parents":[2147483647,0,0,1,1,2,2,3,3,4,4,5,5,6,6,7,7,8,8,9,9,10,10,11,11,12,12,13,13,14,14,17,17,19,19,20,20,21,21,22,22,23,23,24,24,25,25,27,27,28,28,29,29,30,30,31,31,32,32,33,33,34,34,35,35,36,36,38,38,39,39,40,40,41,41,42,42,44,44,45,45,46,46,47,47,49,49,50,50,53,53],"right_children":[2,4,6,8,10,12,14,16,18,20,22,24,26,28,30,-1,-1,32,-1,34,36,38,40,42,44,46,-1,48,50,52,54,56,58,60,62,64,66,-1,68,70,72,74,76,-1,78,80,82,84,-1,86,88,-1,-1,90,-1,-1,-1,-1,-1,-1,-1,-1,-1,-1,-1,-1,-1,-1,-1,-1,-1,-1,-1,-1,-1,-1,-1,-1,-1,-1,-1,-1,-1,-1,-1,-1,-1,-1,-1,-1,-1],"split_conditions":[-3.7752047E-1,-1.49048E0,-1.17198735E-1,-1.3526266E0,-6.5184236E-2,9.8100364E-1,7.7632934E-1,1.2875116E0,3.7536035E0,1.0082915E0,-8.819819E-1,-7.901816E-2,8.140372E-1,-1.2434454E0,1.8434273E-1,-7.732919E-2,4.5162745E-2,-8.278577E-1,-6.95395E-2,-9.255639E-1,4.2070606E-1,6.655675E-1,2.0794923E0,-4.098951E-1,1.1705606E0,-2.546996E-1,-7.089731E-2,-4.633339E-1,-1.0719137E0,-9.71755E-1,-1.5592615E-1,-1.1808599E-1,1.7422706E0,7.0866376E-1,-6.520143E-1,-2.0252953E0,-4.2017284E-1,-7.266199E-2,-6.702555E-1,8.979521E-1,9.047635E-3,1.698867E-3,-3.3819434E-1,-7.69603E-2,-5.2613847E-2,-5.6521523E-1,-9.7309035E-1,4.2260635E-1,-6.1643034E-2,3.5190928E-1,4.6777215E0,7.199569E-2,-7.752167E-2,-1.1780367E0,-6.847864E-2,5.2980036E-2,-5.623092E-2,6.0563065E-2,-1.2246453E-3,-7.910194E-2,4.561444E-2,-3.3667143E-2,4.089672E-2,4.9531437E-2,-9.15506E-2,-5.7974588E-2,6.440405E-2,-6.241394E-2,5.39998E-2,-8.6025886E-2,4.2738974E-2,6.6088356E-2,-5.8311116E-2,-9.816518E-3,3.723971E-2,2.1417348E-2,-4.046602E-2,-4.821946E-2,7.3015325E-2,-5.9953492E-2,6.165103E-2,4.932935E-2,-7.003538E-2,8.517767E-2,1.542532E-2,-4.7238134E-2,6.615059E-2,-7.2620146E-2,4.2887755E-2,-5.7220574E-2,7.4885346E-2],"split_indices":[106,106,332,195,331,346,145,71,244,301,253,218,203,241,47,0,0,161,0,5,263,90,81,127,197,255,0,133,255,284,84,269,252,12,112,135,135,0,143,293,357,237,306,0,100,275,3,226,0,98,3,0,0,132,0,0,0,0,0,0,0,0,0,0,0,0,0,0,0,0,0,0,0,0,0,0,0,0,0,0,0,0,0,0,0,0,0,0,0,0,0],"split_type":[0,0,0,0,0,0,0,0,0,0,0,0,0,0,0,0,0,0,0,0,0,0,0,0,0,0,0,0,0,0,0,0,0,0,0,0,0,0,0,0,0,0,0,0,0,0,0,0,0,0,0,0,0,0,0,0,0,0,0,0,0,0,0,0,0,0,0,0,0,0,0,0,0,0,0,0,0,0,0,0,0,0,0,0,0,0,0,0,0,0,0],"sum_hessian":[1.2753761E3,5.4629376E2,7.2908234E2,2.221192E2,3.2417453E2,4.3089124E2,2.981911E2,5.101794E0,2.170174E2,2.5786664E2,6.63079E1,3.5664355E2,7.424768E1,2.3283832E2,6.535279E1,3.686729E0,1.4150649E0,2.1504022E2,1.9771742E0,2.2219046E2,3.5676186E1,2.7111614E1,3.919629E1,3.082478E2,4.8395737E1,6.836623E1,5.8814487E0,1.1845022E1,2.2099329E2,2.8924547E1,3.642824E1,1.9208675E1,1.9583156E2,7.26541E0,2.1492505E2,1.9019545E1,1.6656641E1,3.4245334E0,2.368708E1,3.0867184E1,8.329103E0,1.3292361E2,1.753242E2,4.2065166E1,6.3305697E0,6.199026E1,6.375969E0,8.395542E0,3.4494803E0,1.5598359E1,2.0539493E2,3.323247E0,2.5601301E1,3.0410702E1,6.017538E0,1.1605458E1,7.6032176E0,1.8784608E2,7.985466E0,5.841637E0,1.4237728E0,9.2859335E0,2.0563911E2,1.4859635E0,1.753358E1,1.6690483E0,1.4987594E1,2.1903462E0,2.1496735E1,2.9091629E1,1.7755557E0,6.208024E0,2.1210794E0,5.5458252E1,7.746536E1,5.0856377E1,1.2446783E2,1.7806268E0,4.549943E0,2.3829465E0,5.960731E1,1.4833208E0,4.8926477E0,6.1711307E0,2.224411E0,8.765101E0,6.833257E0,2.036403E2,1.7546321E0,2.5614898E0,2.7849213E1],"tree_param":{"num_deleted":"0","num_feature":"367","num_nodes":"91","size_leaf_vector":"1"}},{"base_weights":[3.9950598E-2,-3.3339074E-1,4.8074552E-1,-7.7008355E-1,1.10354334E-1,8.454284E-1,1.4967257E-1,5.9318155E-1,-8.8470155E-1,-1.3090843E-1,8.171651E-1,-5.9172595E-1,9.1318583E-1,-1.834023E-1,6.573456E-1,-8.2836896E-1,1.0325049E0,6.821551E-2,-9.5292604E-1,1.063159E0,-3.016429E-1,9.968952E-1,-6.062757E-1,1.032639E0,-8.362991E-2,1.776378E-1,9.970422E-1,5.2856237E-1,-5.414375E-1,8.5800606E-1,-5.034319E-1,-6.8722986E-2,4.2655434E-2,1.3086091E0,-5.354112E-2,-1.0223002E0,1.0235828E0,1.2696729E0,-7.03784E-2,5.1469766E-3,-8.1913036E-1,1.1000493E0,-6.57568E-2,8.555257E-1,-7.56308E-2,6.346586E-2,1.7661175E-2,-6.113361E-1,1.0593928E0,1.0204693E0,-7.214269E-2,7.73185E-1,-7.9937685E-1,4.2028257E-1,-8.912262E-1,9.412455E-1,-6.226365E-2,-1.1928322E0,1.1816205E0,2.0402504E-2,7.7901185E-2,-6.2390365E-2,-2.4965739E-2,8.2658745E-2,-5.2141607E-2,-9.564651E-3,7.146131E-2,-2.2258278E-2,2.8375885E-2,7.6355203E-3,-5.926168E-2,5.9376933E-2,-6.4222775E-2,1.7302176E-2,5.709664E-2,-9.2028245E-2,5.034572E-2,-1.0327455E-2,6.841175E-2,-6.513887E-2,5.214832E-2,4.5456808E-2,-6.631604E-2,5.7003897E-2,-8.3894044E-2,3.9470296E-2,-7.5251326E-2,2.1265492E-2,-5.7487626E-2,-3.1504504E-2,5.2323278E-2,-8.099883E-2,5.4343533E-2,2.141521E-2,7.156987E-2],"categories":[],"categories_nodes":[],"categories_segments":[],"categories_sizes":[],"default_left":[0,0,0,0,0,0,0,0,0,0,0,0,0,0,0,0,0,0,0,0,0,0,0,0,0,0,0,0,0,0,0,0,0,0,0,0,0,0,0,0,0,0,0,0,0,0,0,0,0,0,0,0,0,0,0,0,0,0,0,0,0,0,0,0,0,0,0,0,0,0,0,0,0,0,0,0,0,0,0,0,0,0,0,0,0,0,0,0,0,0,0,0,0,0,0],"id":11,"left_children":[1,3,5,7,9,11,13,15,17,19,21,23,25,27,29,31,33,-1,35,37,39,41,43,45,-1,47,49,51,53,55,57,-1,-1,59,-1,61,63,65,-1,67,69,71,-1,73,-1,-1,-1,75,77,79,-1,81,83,85,87,89,-1,91,93,-1,-1,-1,-1,-1,-1,-1,-1,-1,-1,-1,-1,-1,-1,-1,-1,-1,-1,-1,-1,-1,-1,-1,-1,-1,-1,-1,-1,-1,-1,-1,-1,-1,-1,-1,-1],"loss_changes":[2.1125496E2,1.3478038E2,7.094324E1,5.528517E1,5.9047543E1,2.7794922E1,5.2497166E1,1.8203487E1,5.0964417E1,5.3029396E1,2.3142147E1,2.4917534E1,1.6333237E1,4.8163025E1,2.9065125E1,7.70391E0,1.3983269E1,0E0,4.4202698E1,1.8402729E1,3.6039288E1,2.0191689E1,1.5202852E1,4.9968576E-1,0E0,2.0551302E1,1.5194489E1,2.1197853E1,4.25815E1,1.9586845E1,2.3189434E1,0E0,0E0,3.7669983E0,0E0,3.5296326E1,1.6258926E1,7.401226E0,0E0,3.6591053E1,3.0240582E1,1.733538E1,0E0,2.8432608E-1,0E0,0E0,0E0,3.315067E1,5.70805E0,1.3817383E1,0E0,1.6620808E1,1.954171E1,2.5452326E1,3.191249E1,1.7481781E1,0E0,1.5201403E1,5.0571156E-1,0E0,0E0,0E0,0E0,0E0,0E0,0E0,0E0,0E0,0E0,0E0,0E0,0E0,0E0,0E0,0E0,0E0,0E0,0E0,0E0,0E0,0E0,0E0,0E0,0E0,0E0,0E0,0E0,0E0,0E0,0E0,0E0,0E0,0E0,0E0,0E0],"parents":[2147483647,0,0,1,1,2,2,3,3,4,4,5,5,6,6,7,7,8,8,9,9,10,10,11,11,12,12,13,13,14,14,15,15,16,16,18,18,19,19,20,20,21,21,22,22,23,23,25,25,26,26,27,27,28,28,29,29,30,30,33,33,35,35,36,36,37,37,39,39,40,40,41,41,43,43,47,47,48,48,49,49,51,51,52,52,53,53,54,54,55,55,57,57,58,58],"right_children":[2,4,6,8,10,12,14,16,18,20,22,24,26,28,30,32,34,-1,36,38,40,42,44,46,-1,48,50,52,54,56,58,-1,-1,60,-1,62,64,66,-1,68,70,72,-1,74,-1,-1,-1,76,78,80,-1,82,84,86,88,90,-1,92,94,-1,-1,-1,-1,-1,-1,-1,-1,-1,-1,-1,-1,-1,-1,-1,-1,-1,-1,-1,-1,-1,-1,-1,-1,-1,-1,-1,-1,-1,-1,-1,-1,-1,-1,-1,-1],"split_conditions":[-9.032624E-3,8.042188E-1,5.8024615E-1,-1.2337368E0,8.9722675E-1,-4.2883328E-1,4.2875883E-1,-4.2219362E-1,-1.3504032E0,-2.5087926E0,-2.4718907E-1,-3.798714E-1,-8.714466E-1,-6.425878E-1,1.9994949E-1,-1.7422841E-1,7.939275E-2,6.821551E-2,2.5871913E0,1.1994681E0,-2.8150538E-1,3.460331E-1,-7.7636564E-1,1.7559795E-1,-8.362991E-2,5.9906435E-1,1.207648E-2,2.2481883E-1,-7.3751014E-1,-1.0273203E-1,3.5319483E-1,-6.8722986E-2,4.2655434E-2,-3.9330268E-1,-5.354112E-2,3.6066768E-1,-4.705434E-1,-4.7126073E-1,-7.03784E-2,3.3954182E-1,-9.3241936E-1,1.186919E0,-6.57568E-2,-2.349621E-1,-7.56308E-2,6.346586E-2,1.7661175E-2,2.3670464E0,-1.2636845E-1,-2.1072867E0,-7.214269E-2,6.4036775E-1,-2.040722E0,2.1671541E-1,-3.3567038E-1,1.2524684E-1,-6.226365E-2,1.1471511E0,1.1110633E-1,2.0402504E-2,7.7901185E-2,-6.2390365E-2,-2.4965739E-2,8.2658745E-2,-5.2141607E-2,-9.564651E-3,7.146131E-2,-2.2258278E-2,2.8375885E-2,7.6355203E-3,-5.926168E-2,5.9376933E-2,-6.4222775E-2,1.7302176E-2,5.709664E-2,-9.2028245E-2,5.034572E-2,-1.0327455E-2,6.841175E-2,-6.513887E-2,5.214832E-2,4.5456808E-2,-6.631604E-2,5.7003897E-2,-8.3894044E-2,3.9470296E-2,-7.5251326E-2,2.1265492E-2,-5.7487626E-2,-3.1504504E-2,5.2323278E-2,-8.099883E-2,5.4343533E-2,2.141521E-2,7.156987E-2],"split_indices":[41,99,104,33,362,337,143,72,104,104,218,82,192,331,303,41,297,0,262,244,72,337,251,41,0,256,317,337,221,208,257,0,0,307,0,138,244,168,0,197,107,264,0,41,0,0,0,46,248,147,0,127,330,337,247,46,0,139,71,0,0,0,0,0,0,0,0,0,0,0,0,0,0,0,0,0,0,0,0,0,0,0,0,0,0,0,0,0,0,0,0,0,0,0,0],"split_type":[0,0,0,0,0,0,0,0,0,0,0,0,0,0,0,0,0,0,0,0,0,0,0,0,0,0,0,0,0,0,0,0,0,0,0,0,0,0,0,0,0,0,0,0,0,0,0,0,0,0,0,0,0,0,0,0,0,0,0,0,0,0,0,0,0,0,0,0,0,0,0,0,0,0,0,0,0,0,0,0,0,0,0,0,0,0,0,0,0,0,0,0,0,0,0],"sum_hessian":[1.2817281E3,6.9409344E2,5.8763464E2,3.494559E2,3.4463754E2,2.7888458E2,3.0875006E2,2.677842E1,3.226775E2,2.575427E2,8.709483E1,1.220837E1,2.666762E2,1.868198E2,1.2193027E2,6.1129026E0,2.0665516E1,8.9410095E0,3.1373648E2,3.1564281E1,2.2597842E2,7.759677E1,9.498062E0,4.89566E0,7.3127103E0,2.7610296E1,2.3906593E2,6.235284E1,1.2446696E2,1.04181526E2,1.7748741E1,4.752145E0,1.3607578E0,1.8601528E1,2.0639882E0,3.0356433E2,1.0172144E1,2.9578129E1,1.9861523E0,1.4249251E2,8.3485916E1,7.478438E1,2.8123875E0,3.6565764E0,5.8414855E0,2.9869056E0,1.9087545E0,1.473365E1,1.2876645E1,2.3736855E2,1.697382E0,5.3006207E1,9.346635E0,3.314247E1,9.1324486E1,1.0074685E2,3.4346755E0,1.2802856E1,4.945884E0,4.6061544E0,1.3995374E1,2.1113762E2,9.242671E1,7.949946E0,2.2221978E0,2.8926234E0,2.6685507E1,7.924573E1,6.324678E1,2.3003843E1,6.0482075E1,7.26218E1,2.1625762E0,2.110495E0,1.5460813E0,8.295204E0,6.4384456E0,2.5902884E0,1.0286357E1,1.7307168E0,2.3563783E2,5.0315086E1,2.6911209E0,2.8210073E0,6.5256276E0,2.8305653E1,4.8368196E0,1.4883856E1,7.644063E1,6.0097704E0,9.473708E1,1.1026273E1,1.7765837E0,1.9075476E0,3.0383363E0],"tree_param":{"num_deleted":"0","num_feature":"367","num_nodes":"95","size_leaf_vector":"1"}},{"base_weights":[5.305E-3,5.892731E-1,-3.3465695E-1,2.0412405E-1,8.305627E-1,-9.896487E-1,6.072702E-3,-5.466915E-1,4.149538E-1,2.3054366E-1,9.9422216E-1,3.5560608E-1,-1.1345013E0,-1.1297029E0,1.4976294E-1,7.3569876E-1,-1.089507E0,5.563833E-1,-7.529003E-1,-8.453577E-2,5.957057E-1,-6.822533E-2,1.0213315E0,8.7407124E-1,-9.0676814E-1,-1.2088014E0,1.0952395E0,-1.4036584E0,3.8925284E-1,8.1694376E-1,-1.8060166E-2,1.2247839E0,-5.6503773E-2,-7.993359E-2,8.425169E-1,6.55482E-1,-1.1078792E0,-8.4385246E-2,5.4791577E-2,8.092779E-1,-9.508456E-1,4.965912E-1,1.1717291E0,1.1790235E0,-5.6833226E-2,4.517823E-2,-6.995726E-2,2.774527E-1,-1.2875146E0,7.483492E-2,-4.064543E-2,4.612842E-2,-7.452568E-2,-5.851766E-2,1.150929E0,9.8675036E-1,-8.085634E-1,-6.615364E-1,1.5767589E-1,7.225057E-2,1.12579465E-2,-4.4420995E-2,6.882077E-2,1.1306298E-2,4.9498837E-2,-8.292694E-2,4.1358378E-2,4.6855893E-2,-6.3599706E-2,4.52463E-2,-7.960966E-2,4.175421E-2,-6.28516E-2,5.9873927E-2,-5.5451404E-2,7.027351E-2,-4.4582844E-2,8.317035E-2,-6.474634E-2,-6.663376E-2,1.864474E-2,6.485151E-2,2.2900818E-2,-6.6788994E-2,5.4120786E-2,7.477706E-2,-7.136105E-2,2.4429852E-2,-5.117139E-2,-7.745591E-2,1.1252656E-2],"categories":[],"categories_nodes":[],"categories_segments":[],"categories_sizes":[],"default_left":[0,0,0,0,0,0,0,0,0,0,0,0,0,0,0,0,0,0,0,0,0,0,0,0,0,0,0,0,0,0,0,0,0,0,0,0,0,0,0,0,0,0,0,0,0,0,0,0,0,0,0,0,0,0,0,0,0,0,0,0,0,0,0,0,0,0,0,0,0,0,0,0,0,0,0,0,0,0,0,0,0,0,0,0,0,0,0,0,0,0,0],"id":12,"left_children":[1,3,5,7,9,11,13,15,17,19,21,23,25,27,29,31,33,35,37,-1,39,-1,41,43,45,47,49,51,53,55,57,59,-1,-1,61,63,65,-1,-1,67,69,71,73,75,-1,-1,-1,77,79,-1,-1,-1,-1,-1,81,83,85,87,89,-1,-1,-1,-1,-1,-1,-1,-1,-1,-1,-1,-1,-1,-1,-1,-1,-1,-1,-1,-1,-1,-1,-1,-1,-1,-1,-1,-1,-1,-1,-1,-1],"loss_changes":[2.5108858E2,4.307817E1,1.7841171E2,2.8810743E1,2.7835281E1,5.370941E1,8.614986E1,2.865979E1,2.379925E1,4.4889328E1,1.5732605E1,1.8695377E1,4.227774E1,2.5216034E1,5.2478504E1,1.278969E1,2.9403961E1,2.1645164E1,2.9009356E1,0E0,1.837396E1,0E0,1.6959457E1,1.3541869E1,8.800179E0,2.839981E1,7.7252254E0,1.1566788E1,1.30378E1,2.6797676E1,4.25512E1,1.9603891E0,0E0,0E0,7.32557E0,1.705883E1,9.363399E0,0E0,0E0,1.3796103E1,9.68526E0,3.147072E1,1.143042E1,9.585281E0,0E0,0E0,0E0,3.0220886E1,1.7580536E1,0E0,0E0,0E0,0E0,0E0,1.2636852E-1,2.0495178E1,1.5617638E1,3.409547E1,3.4347977E1,0E0,0E0,0E0,0E0,0E0,0E0,0E0,0E0,0E0,0E0,0E0,0E0,0E0,0E0,0E0,0E0,0E0,0E0,0E0,0E0,0E0,0E0,0E0,0E0,0E0,0E0,0E0,0E0,0E0,0E0,0E0,0E0],"parents":[2147483647,0,0,1,1,2,2,3,3,4,4,5,5,6,6,7,7,8,8,9,9,10,10,11,11,12,12,13,13,14,14,15,15,16,16,17,17,18,18,20,20,22,22,23,23,24,24,25,25,26,26,27,27,28,28,29,29,30,30,31,31,34,34,35,35,36,36,39,39,40,40,41,41,42,42,43,43,47,47,48,48,54,54,55,55,56,56,57,57,58,58],"right_children":[2,4,6,8,10,12,14,16,18,20,22,24,26,28,30,32,34,36,38,-1,40,-1,42,44,46,48,50,52,54,56,58,60,-1,-1,62,64,66,-1,-1,68,70,72,74,76,-1,-1,-1,78,80,-1,-1,-1,-1,-1,82,84,86,88,90,-1,-1,-1,-1,-1,-1,-1,-1,-1,-1,-1,-1,-1,-1,-1,-1,-1,-1,-1,-1,-1,-1,-1,-1,-1,-1,-1,-1,-1,-1,-1,-1],"split_conditions":[-7.3212487E-1,-5.2078646E-1,-3.7773037E-1,-4.855664E-1,-4.3458462E-1,-6.364412E-1,-6.2793535E-1,-5.9235907E-1,1.4613286E0,-6.606346E-1,-2.2401514E0,-3.062692E-1,3.3857038E0,-9.936591E-2,-8.5190135E-1,-6.0837257E-1,3.0204532E0,3.868904E-1,6.370823E-2,-8.453577E-2,4.2614073E-1,-6.822533E-2,2.4273438E-2,5.252195E-1,-1.3538074E0,-1.7043291E0,-1.797401E-1,-2.2895682E0,-5.1605445E-1,1.11492485E-1,-8.9544487E-1,-2.1838811E-1,-5.6503773E-2,-7.993359E-2,4.7066805E-1,-1.08477496E-1,1.082964E0,-8.4385246E-2,5.4791577E-2,-2.6513767E-1,-8.9440775E-1,3.768982E-1,1.9932287E0,2.7210253E-1,-5.6833226E-2,4.517823E-2,-6.995726E-2,-9.224003E-1,3.7611737E0,7.483492E-2,-4.064543E-2,4.612842E-2,-7.452568E-2,-5.851766E-2,-3.189841E-1,-1.6411006E-1,-1.88923E0,-9.021686E-1,-2.0880346E0,7.225057E-2,1.12579465E-2,-4.4420995E-2,6.882077E-2,1.1306298E-2,4.9498837E-2,-8.292694E-2,4.1358378E-2,4.6855893E-2,-6.3599706E-2,4.52463E-2,-7.960966E-2,4.175421E-2,-6.28516E-2,5.9873927E-2,-5.5451404E-2,7.027351E-2,-4.4582844E-2,8.317035E-2,-6.474634E-2,-6.663376E-2,1.864474E-2,6.485151E-2,2.2900818E-2,-6.6788994E-2,5.4120786E-2,7.477706E-2,-7.136105E-2,2.4429852E-2,-5.117139E-2,-7.745591E-2,1.1252656E-2],"split_indices":[101,163,43,43,112,331,105,366,300,256,315,115,262,12,226,191,230,248,133,0,140,0,159,234,163,147,100,127,202,336,273,88,0,0,203,96,2,0,0,103,114,262,208,242,0,0,0,122,100,0,0,0,0,0,11,87,304,233,199,0,0,0,0,0,0,0,0,0,0,0,0,0,0,0,0,0,0,0,0,0,0,0,0,0,0,0,0,0,0,0,0],"split_type":[0,0,0,0,0,0,0,0,0,0,0,0,0,0,0,0,0,0,0,0,0,0,0,0,0,0,0,0,0,0,0,0,0,0,0,0,0,0,0,0,0,0,0,0,0,0,0,0,0,0,0,0,0,0,0,0,0,0,0,0,0,0,0,0,0,0,0,0,0,0,0,0,0,0,0,0,0,0,0,0,0,0,0,0,0,0,0,0,0,0,0],"sum_hessian":[1.2627649E3,4.643671E2,7.983978E2,1.7957443E2,2.8479266E2,2.7255505E2,5.258428E2,3.9020386E1,1.4055405E2,6.154843E1,2.2324423E2,2.635352E1,2.4620154E2,5.8284065E1,4.6755872E2,1.149897E1,2.7521418E1,1.2583835E2,1.4715697E1,9.250089E0,5.2298344E1,1.9760795E0,2.2126814E2,1.8899126E1,7.454394E0,2.3870522E2,7.4963207E0,4.944261E1,8.841454E0,9.3194824E1,3.743639E2,9.382926E0,2.1160438E0,2.1917759E1,5.603658E0,1.1933847E2,6.4998775E0,9.831524E0,4.884174E0,4.6371376E1,5.92697E0,5.0249256E1,1.7101889E2,1.676947E1,2.129656E0,1.4153689E0,6.039025E0,1.1879177E1,2.2682603E2,6.371448E0,1.1248728E0,1.4332863E0,4.8009323E1,2.725066E0,6.116388E0,8.473595E1,8.458877E0,7.971491E1,2.94649E2,7.3238544E0,2.0590715E0,1.1644394E0,4.439219E0,5.2992958E1,6.634551E1,5.171196E0,1.3286816E0,4.4205814E1,2.1655583E0,1.4167004E0,4.5102696E0,4.255825E1,7.691006E0,1.6957933E2,1.4395707E0,1.5405949E1,1.3635209E0,6.2831135E0,5.5960636E0,2.2101222E2,5.8138175E0,4.3312817E0,1.785106E0,2.8393831E0,8.189656E1,1.4904613E0,6.968415E0,1.8995342E1,6.0719566E1,1.0354631E1,2.8429437E2],"tree_param":{"num_deleted":"0","num_feature":"367","num_nodes":"91","size_leaf_vector":"1"}},{"base_weights":[-2.740713E-2,-4.473609E-1,3.2043734E-1,-7.751091E-1,2.2769758E-1,7.9586595E-1,1.0443082E-1,-4.9356663E-1,-1.2213898E0,6.8884414E-1,-1.9230472E-1,9.2452633E-1,-9.065965E-2,-9.451944E-2,6.59782E-1,-6.633018E-1,7.3948413E-1,9.10615E-1,-1.2947719E0,-7.3683476E-1,8.802989E-1,1.0365644E0,-5.3140557E-1,9.587961E-1,-6.6540055E-2,1.1352051E0,-9.972581E-1,3.4094062E-1,-3.7222576E-1,-6.613863E-1,8.102655E-1,4.121689E-1,-8.826383E-1,1.1353076E0,-6.1924316E-2,-4.3515068E-2,8.565209E-2,4.450124E-2,-1.3535308E0,5.795432E-2,-7.784835E-2,9.9583966E-1,-6.964376E-2,1.4175358E0,-5.6022745E-1,-1.28252E0,2.5488043E-1,-6.61832E-2,9.9122137E-1,7.305552E-2,-5.153274E-2,-7.783131E-2,7.557914E-1,6.2446976E-1,-5.7986516E-1,-6.7073506E-1,2.765661E-1,7.834495E-1,-8.41793E-2,8.9145315E-1,-8.1641E-2,-2.7419409E-2,6.265845E-2,3.7883963E-2,-5.050659E-2,6.881591E-2,-5.1160004E-2,6.004892E-2,-6.958611E-2,5.853508E-2,-7.4224183E-3,7.566792E-2,1.9873684E-2,4.218866E-2,-6.768135E-2,-8.2622625E-2,2.1186024E-2,3.0124191E-2,-7.1466304E-2,5.2734017E-2,-2.5484029E-3,1.1035355E-2,5.5470325E-2,-4.405645E-2,4.258384E-2,-5.5205416E-2,4.6948664E-2,-5.6508686E-2,3.2673377E-4,-5.3183224E-2,2.6158467E-2,5.7802577E-2,5.3323223E-3,-6.7524426E-2,4.7834933E-2],"categories":[],"categories_nodes":[],"categories_segments":[],"categories_sizes":[],"default_left":[0,0,0,0,0,0,0,0,0,0,0,0,0,0,0,0,0,0,0,0,0,0,0,0,0,0,0,0,0,0,0,0,0,0,0,0,0,0,0,0,0,0,0,0,0,0,0,0,0,0,0,0,0,0,0,0,0,0,0,0,0,0,0,0,0,0,0,0,0,0,0,0,0,0,0,0,0,0,0,0,0,0,0,0,0,0,0,0,0,0,0,0,0,0,0],"id":13,"left_children":[1,3,5,7,9,11,13,15,17,19,21,23,25,27,29,31,33,35,37,39,41,43,45,47,-1,49,51,53,55,57,59,61,63,65,-1,-1,-1,-1,67,-1,-1,69,-1,71,73,75,77,-1,79,-1,-1,-1,81,83,85,87,89,91,-1,93,-1,-1,-1,-1,-1,-1,-1,-1,-1,-1,-1,-1,-1,-1,-1,-1,-1,-1,-1,-1,-1,-1,-1,-1,-1,-1,-1,-1,-1,-1,-1,-1,-1,-1,-1],"loss_changes":[1.7964095E2,1.2343507E2,6.899731E1,4.654637E1,3.5547604E1,2.4035828E1,5.1292816E1,4.8998516E1,2.3783035E1,2.4497879E1,4.0753597E1,1.5456207E1,3.172179E1,4.1515846E1,2.4875168E1,4.854548E1,2.373273E1,9.199919E0,1.9188278E1,1.873572E1,2.1738358E1,1.3692997E1,4.5372936E1,1.4730255E1,0E0,1.0095861E1,1.7214167E1,3.529289E1,4.0751595E1,2.062053E1,2.3344002E1,2.9188915E1,3.6311813E1,1.4041105E1,0E0,0E0,0E0,0E0,1.5018967E1,0E0,0E0,1.5044907E1,0E0,1.0994835E0,6.490302E0,2.5426987E1,2.3165184E1,0E0,1.1914429E1,0E0,0E0,0E0,6.3109064E-1,3.59092E1,2.6530157E1,4.473642E1,2.2605133E1,1.4143484E0,0E0,1.7009575E1,0E0,0E0,0E0,0E0,0E0,0E0,0E0,0E0,0E0,0E0,0E0,0E0,0E0,0E0,0E0,0E0,0E0,0E0,0E0,0E0,0E0,0E0,0E0,0E0,0E0,0E0,0E0,0E0,0E0,0E0,0E0,0E0,0E0,0E0,0E0],"parents":[2147483647,0,0,1,1,2,2,3,3,4,4,5,5,6,6,7,7,8,8,9,9,10,10,11,11,12,12,13,13,14,14,15,15,16,16,17,17,18,18,19,19,20,20,21,21,22,22,23,23,25,25,26,26,27,27,28,28,29,29,30,30,31,31,32,32,33,33,38,38,41,41,43,43,44,44,45,45,46,46,48,48,52,52,53,53,54,54,55,55,56,56,57,57,59,59],"right_children":[2,4,6,8,10,12,14,16,18,20,22,24,26,28,30,32,34,36,38,40,42,44,46,48,-1,50,52,54,56,58,60,62,64,66,-1,-1,-1,-1,68,-1,-1,70,-1,72,74,76,78,-1,80,-1,-1,-1,82,84,86,88,90,92,-1,94,-1,-1,-1,-1,-1,-1,-1,-1,-1,-1,-1,-1,-1,-1,-1,-1,-1,-1,-1,-1,-1,-1,-1,-1,-1,-1,-1,-1,-1,-1,-1,-1,-1,-1,-1],"split_conditions":[7.0674676E-1,2.7145118E-1,-4.2092565E-1,-4.359687E-1,-4.7351253E-1,2.8873754E-1,8.9722675E-1,1.2833913E-1,-1.062959E0,-6.3466954E-1,-5.955712E-1,3.2824426E0,-9.542043E-1,-2.5529262E-1,-7.3119867E-1,-4.843336E-1,5.609685E-1,7.2593653E-1,-1.8984882E0,-1.520873E0,2.8661335E0,-3.011826E-1,1.1363124E-1,-1.563671E0,-6.6540055E-2,7.610863E-1,1.2960862E0,8.689046E-1,7.101437E-1,-5.112331E-1,9.26226E-1,-1.4950266E-1,-1.2786543E0,1.251222E-1,-6.1924316E-2,-4.3515068E-2,8.565209E-2,4.450124E-2,-1.2604196E0,5.795432E-2,-7.784835E-2,9.5296043E-1,-6.964376E-2,9.4311744E-1,-2.2419574E0,8.8606685E-1,9.078816E-1,-6.61832E-2,6.38047E-1,7.305552E-2,-5.153274E-2,-7.783131E-2,1.7959893E-1,2.387867E-1,1.142777E0,7.2047273E-3,-7.178392E-1,-4.154729E-1,-8.41793E-2,-7.3826927E-1,-8.1641E-2,-2.7419409E-2,6.265845E-2,3.7883963E-2,-5.050659E-2,6.881591E-2,-5.1160004E-2,6.004892E-2,-6.958611E-2,5.853508E-2,-7.4224183E-3,7.566792E-2,1.9873684E-2,4.218866E-2,-6.768135E-2,-8.2622625E-2,2.1186024E-2,3.0124191E-2,-7.1466304E-2,5.2734017E-2,-2.5484029E-3,1.1035355E-2,5.5470325E-2,-4.405645E-2,4.258384E-2,-5.5205416E-2,4.6948664E-2,-5.6508686E-2,3.2673377E-4,-5.3183224E-2,2.6158467E-2,5.7802577E-2,5.3323223E-3,-6.7524426E-2,4.7834933E-2],"split_indices":[99,46,301,300,218,107,362,3,323,145,107,264,266,223,116,107,261,145,213,203,76,345,346,195,0,364,362,92,100,218,73,273,121,115,0,0,0,0,3,0,0,364,0,224,31,147,364,0,337,0,0,0,0,365,47,18,191,72,0,108,0,0,0,0,0,0,0,0,0,0,0,0,0,0,0,0,0,0,0,0,0,0,0,0,0,0,0,0,0,0,0,0,0,0,0],"split_type":[0,0,0,0,0,0,0,0,0,0,0,0,0,0,0,0,0,0,0,0,0,0,0,0,0,0,0,0,0,0,0,0,0,0,0,0,0,0,0,0,0,0,0,0,0,0,0,0,0,0,0,0,0,0,0,0,0,0,0,0,0,0,0,0,0,0,0,0,0,0,0,0,0,0,0,0,0,0,0,0,0,0,0,0,0,0,0,0,0,0,0,0,0,0,0],"sum_hessian":[1.227774E3,5.5610297E2,6.716711E2,3.742516E2,1.818514E2,2.0899353E2,4.6267755E2,2.3077187E2,1.4347972E2,8.6374916E1,9.547648E1,1.8246915E2,2.6524382E1,3.4125528E2,1.21422264E2,2.0325494E2,2.7516922E1,4.394513E0,1.390852E2,9.888798E0,7.6486115E1,2.0203634E1,7.527284E1,1.8030429E2,2.164854E0,1.116941E1,1.5354971E1,1.3279582E2,2.0845946E2,1.2068851E1,1.0935341E2,3.4281853E1,1.6897308E2,2.3283539E1,4.233383E0,1.3387305E0,3.0557826E0,3.2721376E0,1.3581306E2,2.8611987E0,7.0275993E0,7.3321266E1,3.1648512E0,1.6402494E1,3.8011389E0,3.8174664E1,3.709818E1,1.9677768E0,1.7833652E2,9.991362E0,1.178048E0,1.1725585E1,3.6293864E0,1.0177858E2,3.1017242E1,1.427475E2,6.5711975E1,5.0974236E0,6.9714274E0,1.0645099E2,2.9024272E0,1.6165825E1,1.811603E1,1.1829765E1,1.5714331E2,2.127089E1,2.0126495E0,1.552093E0,1.3426097E2,6.358203E1,9.739235E0,1.4551923E1,1.8505723E0,1.3495258E0,2.4516132E0,3.1398611E1,6.776054E0,3.128379E1,5.8143873E0,1.6808954E2,1.0246972E1,2.0903897E0,1.5389968E0,1.296792E1,8.881066E1,2.3261387E1,7.755857E0,8.465289E1,5.80946E1,9.6971245E0,5.6014847E1,2.8308454E0,2.2665784E0,2.4532905E0,1.03997696E2],"tree_param":{"num_deleted":"0","num_feature":"367","num_nodes":"95","size_leaf_vector":"1"}},{"base_weights":[4.1851856E-2,4.597668E-1,-4.4652694E-1,8.412025E-1,1.7883766E-1,2.116263E-1,-7.345941E-1,5.07427E-3,9.881347E-1,5.033184E-1,-3.3518335E-1,4.2334497E-1,-9.40508E-1,2.0052841E-1,-9.2062306E-1,4.3766615E-1,-7.88792E-2,1.2348548E0,7.7843255E-1,1.7692022E-2,7.8469014E-1,-9.414248E-1,1.6200694E-1,5.4618645E-1,-7.014974E-2,-6.869343E-2,6.6163146E-1,-7.482871E-2,5.1354355E-1,-3.8409984E-1,-1.1920111E0,6.816296E-1,-7.11518E-2,-6.425539E-2,1.2864219E0,-8.979234E-1,8.532647E-1,9.143097E-1,-5.7470876E-1,2.4534544E-1,1.0268245E0,3.2670933E-1,-1.4311738E0,3.1911352E-1,-8.0219984E-2,8.479156E-1,-8.147091E-2,-4.4881664E-2,6.1924525E-2,7.9900104E-1,-9.6903414E-1,5.8113333E-2,-1.2762654E0,6.540626E-1,-1.2585325E0,-2.296586E-2,5.191349E-2,6.695504E-2,7.0616216E-3,4.1477542E-2,-7.700745E-2,-6.864679E-2,4.513378E-2,-6.0599606E-2,5.5079233E-2,9.928367E-3,-6.4265616E-2,-4.7286216E-2,4.6289716E-2,-1.720095E-4,6.0565084E-2,5.7367243E-2,-6.680321E-2,-7.5938724E-2,4.5129236E-2,2.3677653E-2,-7.650553E-2,-3.6698148E-2,4.9474183E-2,3.864249E-2,-5.498875E-2,7.7876286E-3,6.565533E-2,-7.325012E-2,5.2062403E-2,-2.7350018E-2,3.3786047E-2,6.871818E-2,-7.1304046E-2,8.294932E-2,-5.2610643E-2,-6.497559E-2,3.5387352E-2],"categories":[],"categories_nodes":[],"categories_segments":[],"categories_sizes":[],"default_left":[0,0,0,0,0,0,0,0,0,0,0,0,0,0,0,0,0,0,0,0,0,0,0,0,0,0,0,0,0,0,0,0,0,0,0,0,0,0,0,0,0,0,0,0,0,0,0,0,0,0,0,0,0,0,0,0,0,0,0,0,0,0,0,0,0,0,0,0,0,0,0,0,0,0,0,0,0,0,0,0,0,0,0,0,0,0,0,0,0,0,0,0,0],"id":14,"left_children":[1,3,5,7,9,11,13,15,17,19,21,23,25,27,29,31,-1,33,35,37,39,41,43,45,-1,-1,47,-1,49,51,53,55,-1,-1,57,59,61,63,65,67,69,71,73,75,-1,77,79,-1,-1,81,83,85,87,89,91,-1,-1,-1,-1,-1,-1,-1,-1,-1,-1,-1,-1,-1,-1,-1,-1,-1,-1,-1,-1,-1,-1,-1,-1,-1,-1,-1,-1,-1,-1,-1,-1,-1,-1,-1,-1,-1,-1],"loss_changes":[2.5493036E2,7.1968796E1,1.093622E2,3.5030716E1,6.502431E1,4.336275E1,6.992021E1,3.0561205E1,1.158786E1,3.2612213E1,4.5689053E1,3.4302876E1,2.0108595E1,3.6538963E1,4.8252533E1,1.6879284E1,0E0,1.5912842E1,1.7552948E1,4.7594402E1,1.9488045E1,4.28361E1,2.3783157E1,2.6730759E1,0E0,0E0,7.014355E0,0E0,2.5149372E1,4.499122E1,2.8046875E1,1.3359801E1,0E0,0E0,6.3282623E0,8.162268E0,1.5386452E1,1.5527655E1,2.9913754E1,3.9897778E1,1.977185E1,2.8577976E1,1.1469864E1,2.2955402E1,0E0,2.2037674E1,4.140554E1,0E0,0E0,1.59482155E1,1.1247492E1,2.9174957E1,1.6960018E1,1.6094706E1,1.818863E1,0E0,0E0,0E0,0E0,0E0,0E0,0E0,0E0,0E0,0E0,0E0,0E0,0E0,0E0,0E0,0E0,0E0,0E0,0E0,0E0,0E0,0E0,0E0,0E0,0E0,0E0,0E0,0E0,0E0,0E0,0E0,0E0,0E0,0E0,0E0,0E0,0E0,0E0],"parents":[2147483647,0,0,1,1,2,2,3,3,4,4,5,5,6,6,7,7,8,8,9,9,10,10,11,11,12,12,13,13,14,14,15,15,17,17,18,18,19,19,20,20,21,21,22,22,23,23,26,26,28,28,29,29,30,30,31,31,34,34,35,35,36,36,37,37,38,38,39,39,40,40,41,41,42,42,43,43,45,45,46,46,49,49,50,50,51,51,52,52,53,53,54,54],"right_children":[2,4,6,8,10,12,14,16,18,20,22,24,26,28,30,32,-1,34,36,38,40,42,44,46,-1,-1,48,-1,50,52,54,56,-1,-1,58,60,62,64,66,68,70,72,74,76,-1,78,80,-1,-1,82,84,86,88,90,92,-1,-1,-1,-1,-1,-1,-1,-1,-1,-1,-1,-1,-1,-1,-1,-1,-1,-1,-1,-1,-1,-1,-1,-1,-1,-1,-1,-1,-1,-1,-1,-1,-1,-1,-1,-1,-1,-1],"split_conditions":[4.5719907E-1,-1.21224E0,-2.8097245E-1,-6.5514576E-1,-3.1477302E-1,8.5368715E-2,-6.364412E-1,4.94898E-1,-4.264643E-1,-5.5099934E-1,-2.6989436E-1,8.2010967E-1,5.9291244E-1,-2.096535E-1,-2.5391626E-1,6.197432E-1,-7.88792E-2,-9.8068386E-1,-1.1415819E0,-8.760527E-1,-1.02289915E-2,-6.616064E-1,4.7883677E-1,1.3677263E0,-7.014974E-2,-6.869343E-2,-1.0518345E-2,-7.482871E-2,8.734378E-2,-3.964997E-1,-6.608623E-1,-4.0374866E-1,-7.11518E-2,-6.425539E-2,3.4188643E-1,-6.6752166E-1,-1.6574544E0,-1.1467205E-1,-2.1051275E-2,9.300008E-2,-6.219099E-1,-1.311242E-1,3.2798705E0,4.467308E-1,-8.0219984E-2,-7.6895815E-1,-4.9242896E-1,-4.4881664E-2,6.1924525E-2,-1.360264E-2,1.3012749E0,6.0309164E-2,-7.62311E-1,2.5188234E-1,3.1744397E0,-2.296586E-2,5.191349E-2,6.695504E-2,7.0616216E-3,4.1477542E-2,-7.700745E-2,-6.864679E-2,4.513378E-2,-6.0599606E-2,5.5079233E-2,9.928367E-3,-6.4265616E-2,-4.7286216E-2,4.6289716E-2,-1.720095E-4,6.0565084E-2,5.7367243E-2,-6.680321E-2,-7.5938724E-2,4.5129236E-2,2.3677653E-2,-7.650553E-2,-3.6698148E-2,4.9474183E-2,3.864249E-2,-5.498875E-2,7.7876286E-3,6.565533E-2,-7.325012E-2,5.2062403E-2,-2.7350018E-2,3.3786047E-2,6.871818E-2,-7.1304046E-2,8.294932E-2,-5.2610643E-2,-6.497559E-2,3.5387352E-2],"split_indices":[106,106,306,165,331,252,331,269,216,166,43,34,73,47,307,192,0,5,195,201,159,42,337,270,0,0,105,0,216,218,149,346,0,0,118,71,135,167,304,41,3,121,10,308,0,346,265,0,0,265,241,232,71,123,132,0,0,0,0,0,0,0,0,0,0,0,0,0,0,0,0,0,0,0,0,0,0,0,0,0,0,0,0,0,0,0,0,0,0,0,0,0,0],"split_type":[0,0,0,0,0,0,0,0,0,0,0,0,0,0,0,0,0,0,0,0,0,0,0,0,0,0,0,0,0,0,0,0,0,0,0,0,0,0,0,0,0,0,0,0,0,0,0,0,0,0,0,0,0,0,0,0,0,0,0,0,0,0,0,0,0,0,0,0,0,0,0,0,0,0,0,0,0,0,0,0,0,0,0,0,0,0,0,0,0,0,0,0,0],"sum_hessian":[1.2470356E3,6.720276E2,5.750081E2,2.8418152E2,3.8784607E2,1.7513614E2,3.9987195E2,4.262954E1,2.4155199E2,2.3777138E2,1.5007469E2,1.4848312E2,2.6653017E1,6.6336494E1,3.3353546E2,3.4046883E1,8.582657E0,1.0873443E2,1.3281755E2,8.761586E1,1.5015552E2,6.721888E1,8.2855804E1,1.3978217E2,8.700953E0,2.1090702E1,5.5623164E0,9.741106E0,5.659539E1,1.1285028E2,2.2068517E2,3.0660538E1,3.386345E0,1.7007657E0,1.0703367E2,5.205571E0,1.27611984E2,3.4641476E1,5.297439E1,4.714813E1,1.03007385E2,1.8820034E1,4.839884E1,7.684083E1,6.0149837E0,9.416432E1,4.5617847E1,1.351934E0,4.2103825E0,4.7844433E1,8.750959E0,7.6076744E1,3.677354E1,7.3683996E0,2.1331677E2,7.233036E0,2.3427502E1,1.0216475E2,4.868916E0,1.3317409E0,3.8738306E0,2.1892564E0,1.2542273E2,2.3611765E0,3.22803E1,2.5713554E1,2.7260832E1,1.7000427E1,3.0147703E1,1.5792291E1,8.7215096E1,1.2808556E1,6.0114775E0,4.6984436E1,1.414406E0,7.160462E1,5.236203E0,7.3911567E0,8.677316E1,2.493735E1,2.06805E1,2.1831646E1,2.6012787E1,7.236778E0,1.5141816E0,3.84848E1,3.7591946E1,1.5300059E0,3.5243534E1,4.6546965E0,2.7137034E0,2.0929398E2,4.0227885E0],"tree_param":{"num_deleted":"0","num_feature":"367","num_nodes":"93","size_leaf_vector":"1"}},{"base_weights":[4.8702545E-2,5.409767E-1,-3.2867113E-1,8.762549E-1,3.119221E-1,-6.57193E-1,3.152305E-1,-2.2403008E-1,9.697832E-1,-4.315049E-1,4.7641116E-1,-1.1380075E0,-3.8846102E-1,6.245807E-3,8.367234E-1,7.9686415E-1,-7.976346E-2,9.9386525E-1,-5.872965E-2,-7.712541E-1,1.2161362E0,5.403179E-1,-1.1439551E0,-1.22484E0,9.9424E-1,-5.3810304E-1,5.662139E-1,-7.592534E-2,1.1814983E-1,-5.686002E-2,9.0590924E-1,6.195898E-2,-5.9745338E-2,1.1252416E0,5.561728E-1,9.6650416E-1,-1.0965754E0,1.5886612E-2,7.0563585E-2,6.5503055E-1,-3.1748348E-1,-8.00422E-2,4.8086308E-2,6.773876E-2,-1.2928896E0,7.801063E-2,-4.2896282E-2,1.8948787E-1,-8.046691E-1,-6.2887214E-2,8.4347236E-1,-7.441771E-2,2.1984468E-1,-6.51072E-2,9.684816E-1,5.7579577E-2,-5.7836723E-2,-5.3569604E-2,3.956903E-2,-3.9625805E-2,6.733286E-2,-7.080044E-2,2.2615617E-2,1.0160381E-3,3.987611E-2,1.3088181E-2,-8.407362E-2,-6.7907855E-2,1.0342318E-2,-3.877493E-2,3.0965364E-2,-5.4923594E-2,-4.193956E-3,-6.2113162E-2,5.6791812E-2,1.7557224E-2,-5.1129755E-2,5.7505425E-2,8.692448E-4],"categories":[],"categories_nodes":[],"categories_segments":[],"categories_sizes":[],"default_left":[0,0,0,0,0,0,0,0,0,0,0,0,0,0,0,0,0,0,0,0,0,0,0,0,0,0,0,0,0,0,0,0,0,0,0,0,0,0,0,0,0,0,0,0,0,0,0,0,0,0,0,0,0,0,0,0,0,0,0,0,0,0,0,0,0,0,0,0,0,0,0,0,0,0,0,0,0,0,0],"id":15,"left_children":[1,3,5,7,9,11,13,15,17,19,21,23,25,27,29,31,-1,33,-1,35,37,39,41,43,45,47,49,-1,51,-1,53,-1,-1,55,57,59,61,-1,-1,63,65,-1,-1,-1,67,-1,-1,69,71,-1,73,-1,75,-1,77,-1,-1,-1,-1,-1,-1,-1,-1,-1,-1,-1,-1,-1,-1,-1,-1,-1,-1,-1,-1,-1,-1,-1,-1],"loss_changes":[2.305255E2,4.1077362E1,1.488135E2,2.2650436E1,3.951408E1,5.9705353E1,3.8346306E1,2.6316368E1,1.1552475E1,3.3832138E1,2.7923424E1,3.2022003E1,4.3180355E1,2.585266E1,1.3122734E1,1.110324E1,0E0,1.0840759E1,0E0,2.8946762E1,1.3807144E0,2.5237167E1,1.1473735E1,2.989325E1,8.741716E0,5.057366E1,2.1873833E1,0E0,2.337999E1,0E0,1.3157539E1,0E0,0E0,1.0495697E1,1.922826E1,6.6241255E0,2.1429863E1,0E0,0E0,2.0304375E1,2.4677265E1,0E0,0E0,0E0,1.5619843E1,0E0,0E0,2.9727974E1,4.024012E1,0E0,2.3561201E1,0E0,2.2149597E1,0E0,1.4543228E1,0E0,0E0,0E0,0E0,0E0,0E0,0E0,0E0,0E0,0E0,0E0,0E0,0E0,0E0,0E0,0E0,0E0,0E0,0E0,0E0,0E0,0E0,0E0,0E0],"parents":[2147483647,0,0,1,1,2,2,3,3,4,4,5,5,6,6,7,7,8,8,9,9,10,10,11,11,12,12,13,13,14,14,15,15,17,17,19,19,20,20,21,21,22,22,23,23,24,24,25,25,26,26,28,28,30,30,33,33,34,34,35,35,36,36,39,39,40,40,44,44,47,47,48,48,50,50,52,52,54,54],"right_children":[2,4,6,8,10,12,14,16,18,20,22,24,26,28,30,32,-1,34,-1,36,38,40,42,44,46,48,50,-1,52,-1,54,-1,-1,56,58,60,62,-1,-1,64,66,-1,-1,-1,68,-1,-1,70,72,-1,74,-1,76,-1,78,-1,-1,-1,-1,-1,-1,-1,-1,-1,-1,-1,-1,-1,-1,-1,-1,-1,-1,-1,-1,-1,-1,-1,-1],"split_conditions":[-3.7752047E-1,-1.49048E0,2.7145118E-1,-8.01E-1,-4.855664E-1,2.387867E-1,5.092748E-1,-9.880512E-2,4.56805E0,-8.451369E-2,6.38047E-1,2.1767147E0,9.0418696E-1,-8.881353E-1,-3.4299262E-2,-3.6307525E-2,-7.976346E-2,1.4244956E-1,-5.872965E-2,-7.8030854E-1,-3.7828827E-1,6.712484E-1,8.19465E-1,-1.3319893E0,2.447957E0,-6.96787E-1,-4.4380122E-1,-7.592534E-2,-7.9615265E-1,-5.686002E-2,-5.0701562E-2,6.195898E-2,-5.9745338E-2,2.1168127E0,-6.887051E-1,-2.4199581E-1,1.4704736E0,1.5886612E-2,7.0563585E-2,-3.6227414E-1,5.870715E-2,-8.00422E-2,4.8086308E-2,6.773876E-2,1.510866E0,7.801063E-2,-4.2896282E-2,-3.875543E-3,1.7905898E-2,-6.2887214E-2,-5.408049E-1,-7.441771E-2,-7.916427E-2,-6.51072E-2,-3.267567E-2,5.7579577E-2,-5.7836723E-2,-5.3569604E-2,3.956903E-2,-3.9625805E-2,6.733286E-2,-7.080044E-2,2.2615617E-2,1.0160381E-3,3.987611E-2,1.3088181E-2,-8.407362E-2,-6.7907855E-2,1.0342318E-2,-3.877493E-2,3.0965364E-2,-5.4923594E-2,-4.193956E-3,-6.2113162E-2,5.6791812E-2,1.7557224E-2,-5.1129755E-2,5.7505425E-2,8.692448E-4],"split_indices":[106,106,46,161,43,365,346,349,88,318,337,261,91,164,97,351,0,308,0,42,256,216,89,346,261,203,157,0,196,0,207,0,0,169,131,147,168,0,0,112,127,0,0,0,366,0,0,267,77,0,152,0,208,0,278,0,0,0,0,0,0,0,0,0,0,0,0,0,0,0,0,0,0,0,0,0,0,0,0],"split_type":[0,0,0,0,0,0,0,0,0,0,0,0,0,0,0,0,0,0,0,0,0,0,0,0,0,0,0,0,0,0,0,0,0,0,0,0,0,0,0,0,0,0,0,0,0,0,0,0,0,0,0,0,0,0,0,0,0,0,0,0,0,0,0,0,0,0,0,0,0,0,0,0,0,0,0,0,0,0,0],"sum_hessian":[1.238953E3,5.374412E2,7.015117E2,2.1699287E2,3.2044836E2,4.6450055E2,2.3701118E2,1.6890802E1,2.0010207E2,5.7762207E1,2.6268616E2,1.6537582E2,2.9912473E2,1.4946507E2,8.754612E1,9.9224E0,6.968403E0,1.9841039E2,1.691692E0,4.832859E1,9.433617E0,2.5336026E2,9.325906E0,1.5931358E2,6.062239E0,2.5896863E2,4.0156097E1,9.360021E0,1.4010504E2,2.4418347E0,8.510428E1,8.428517E0,1.493883E0,1.5139677E2,4.7013607E1,7.310012E0,4.101858E1,2.1523693E0,7.2812476E0,2.2368372E2,2.9676537E1,7.860165E0,1.4657412E0,3.6086447E0,1.5570494E2,4.764088E0,1.2981509E0,6.9515495E1,1.8945312E2,4.832025E0,3.5324074E1,7.52916E0,1.3257588E2,1.799331E0,8.330495E1,1.5015825E2,1.2385197E0,5.4874034E0,4.1526203E1,1.1062964E0,6.2037153E0,3.407661E1,6.9419675E0,4.1219517E1,1.824642E2,2.1397654E1,8.278883E0,1.4930183E2,6.4031115E0,2.1173864E1,4.8341633E1,1.342196E2,5.5233524E1,3.9433103E0,3.1380762E1,1.2055331E2,1.202258E1,6.9771706E1,1.3533245E1],"tree_param":{"num_deleted":"0","num_feature":"367","num_nodes":"79","size_leaf_vector":"1"}},{"base_weights":[1.1109098E-2,5.7736623E-1,-2.8967223E-1,8.814801E-1,3.2307324E-1,-6.5964216E-1,1.902155E-1,9.9079674E-1,9.304743E-2,-8.233425E-2,4.1904375E-1,-1.1119633E0,-4.1965127E-1,6.8469906E-1,-7.79641E-2,1.0200055E0,-5.780841E-2,-8.098788E-2,5.3214264E-1,7.473254E-1,2.3900833E-2,-1.2032644E0,9.938498E-1,-7.5135624E-1,1.3056573E-2,-5.214822E-1,8.248594E-1,-7.9389596E-1,2.3150812E-1,1.0459014E0,-5.4685947E-2,1.0738503E0,-5.8099186E-1,5.9492297E-2,9.932692E-1,3.0732137E-1,-1.2425412E0,8.0559844E-1,-1.2934097E0,-4.4276793E-2,8.005051E-2,-1.5958482E-1,-1.2732981E0,5.4718876E-1,-4.2448804E-1,-7.5327404E-2,6.2346797E-2,-6.788628E-2,8.91386E-1,6.954911E-1,-1.1883438E0,5.743738E-1,-2.9274866E-1,-1.7161107E-2,5.3461283E-2,6.607919E-2,-7.7971756E-3,-8.620744E-2,5.151434E-2,-6.34817E-2,3.283697E-2,-9.250533E-3,5.802387E-2,2.3894347E-2,-7.774026E-2,5.2957863E-2,-8.492285E-2,-4.4262853E-2,7.137718E-2,7.977953E-2,-6.674563E-2,6.809522E-2,-2.582254E-2,1.1364598E-2,-7.2023235E-2,-6.742842E-2,4.1157868E-2,-4.174794E-2,3.82808E-2,4.9035795E-2,-3.512844E-2,6.011743E-2,-6.124418E-2,2.2926271E-2,-7.120109E-2,3.384549E-2,-6.5284394E-2,2.4062192E-2,-3.7575554E-2],"categories":[],"categories_nodes":[],"categories_segments":[],"categories_sizes":[],"default_left":[0,0,0,0,0,0,0,0,0,0,0,0,0,0,0,0,0,0,0,0,0,0,0,0,0,0,0,0,0,0,0,0,0,0,0,0,0,0,0,0,0,0,0,0,0,0,0,0,0,0,0,0,0,0,0,0,0,0,0,0,0,0,0,0,0,0,0,0,0,0,0,0,0,0,0,0,0,0,0,0,0,0,0,0,0,0,0,0,0],"id":16,"left_children":[1,3,5,7,9,11,13,15,17,-1,19,21,23,25,27,29,-1,-1,31,33,35,37,39,41,43,45,47,49,51,53,-1,55,57,59,61,63,65,67,69,-1,-1,71,73,75,77,-1,-1,-1,79,81,83,85,87,-1,-1,-1,-1,-1,-1,-1,-1,-1,-1,-1,-1,-1,-1,-1,-1,-1,-1,-1,-1,-1,-1,-1,-1,-1,-1,-1,-1,-1,-1,-1,-1,-1,-1,-1,-1],"loss_changes":[2.0392072E2,3.1835052E1,1.389582E2,1.6159775E1,4.3748547E1,4.748915E1,4.529861E1,1.15576935E1,1.8960428E1,0E0,2.8259552E1,3.0522705E1,4.166807E1,2.0730133E1,4.9395287E1,1.0110306E1,0E0,0E0,1.2627566E1,2.0078064E1,3.625924E1,2.7598572E1,9.275578E0,5.054754E1,2.9896008E1,2.4721834E1,1.6886513E1,4.034105E1,2.818251E1,5.6267242E0,0E0,4.392578E0,1.4974535E1,2.6566345E1,1.747744E1,2.693926E1,2.1188187E1,8.534929E0,1.9004333E1,0E0,0E0,4.3134983E1,2.21922E1,3.1240446E1,3.4998207E1,0E0,0E0,0E0,1.569294E1,1.5794882E1,2.1435936E1,1.911347E1,2.247855E1,0E0,0E0,0E0,0E0,0E0,0E0,0E0,0E0,0E0,0E0,0E0,0E0,0E0,0E0,0E0,0E0,0E0,0E0,0E0,0E0,0E0,0E0,0E0,0E0,0E0,0E0,0E0,0E0,0E0,0E0,0E0,0E0,0E0,0E0,0E0,0E0],"parents":[2147483647,0,0,1,1,2,2,3,3,4,4,5,5,6,6,7,7,8,8,10,10,11,11,12,12,13,13,14,14,15,15,18,18,19,19,20,20,21,21,22,22,23,23,24,24,25,25,26,26,27,27,28,28,29,29,31,31,32,32,33,33,34,34,35,35,36,36,37,37,38,38,41,41,42,42,43,43,44,44,48,48,49,49,50,50,51,51,52,52],"right_children":[2,4,6,8,10,12,14,16,18,-1,20,22,24,26,28,30,-1,-1,32,34,36,38,40,42,44,46,48,50,52,54,-1,56,58,60,62,64,66,68,70,-1,-1,72,74,76,78,-1,-1,-1,80,82,84,86,88,-1,-1,-1,-1,-1,-1,-1,-1,-1,-1,-1,-1,-1,-1,-1,-1,-1,-1,-1,-1,-1,-1,-1,-1,-1,-1,-1,-1,-1,-1,-1,-1,-1,-1,-1,-1],"split_conditions":[-6.557603E-1,-5.0020635E-1,5.3613644E-2,3.6373705E-1,-9.7660553E-1,2.387867E-1,-3.3819434E-1,2.100163E0,-5.340339E-1,-8.233425E-2,3.9158735E-2,2.1767147E0,9.950793E-2,1.4219786E-1,3.274276E-1,1.1266891E0,-5.780841E-2,-8.098788E-2,-2.998859E-3,-4.5345657E-2,1.0770239E0,-1.3799179E0,1.5005742E0,-8.900094E-2,-3.3657274E-1,9.609871E-2,-6.459713E-1,-1.0319148E0,-1.6600223E-1,-4.6922994E0,-5.4685947E-2,3.1501487E-1,1.7828716E0,-1.8890087E-1,-5.762716E-1,8.77105E-1,-3.847779E0,9.7218865E-1,-1.4914051E0,-4.4276793E-2,8.005051E-2,-4.526403E-1,-4.5229125E-1,-6.7282444E-1,8.4088916E-1,-7.5327404E-2,6.2346797E-2,-6.788628E-2,1.1763194E0,-7.8533924E-1,-1.4234803E0,1.2875458E0,-6.8265325E-1,-1.7161107E-2,5.3461283E-2,6.607919E-2,-7.7971756E-3,-8.620744E-2,5.151434E-2,-6.34817E-2,3.283697E-2,-9.250533E-3,5.802387E-2,2.3894347E-2,-7.774026E-2,5.2957863E-2,-8.492285E-2,-4.4262853E-2,7.137718E-2,7.977953E-2,-6.674563E-2,6.809522E-2,-2.582254E-2,1.1364598E-2,-7.2023235E-2,-6.742842E-2,4.1157868E-2,-4.174794E-2,3.82808E-2,4.9035795E-2,-3.512844E-2,6.011743E-2,-6.124418E-2,2.2926271E-2,-7.120109E-2,3.384549E-2,-6.5284394E-2,2.4062192E-2,-3.7575554E-2],"split_indices":[106,331,43,211,116,365,306,157,165,0,305,261,362,45,362,99,0,0,217,351,249,34,197,231,135,217,15,224,253,283,0,86,172,112,133,248,33,251,344,0,0,306,24,219,143,0,0,0,342,13,265,92,136,0,0,0,0,0,0,0,0,0,0,0,0,0,0,0,0,0,0,0,0,0,0,0,0,0,0,0,0,0,0,0,0,0,0,0,0],"split_type":[0,0,0,0,0,0,0,0,0,0,0,0,0,0,0,0,0,0,0,0,0,0,0,0,0,0,0,0,0,0,0,0,0,0,0,0,0,0,0,0,0,0,0,0,0,0,0,0,0,0,0,0,0,0,0,0,0,0,0,0,0,0,0,0,0,0,0,0,0,0,0,0,0,0,0,0,0,0,0,0,0,0,0,0,0,0,0,0,0],"sum_hessian":[1.195301E3,4.1433878E2,7.809623E2,1.8756262E2,2.2677614E2,4.4077316E2,3.4018912E2,1.644982E2,2.3064432E1,9.784979E0,2.1699117E2,1.5153511E2,2.8923807E2,1.190765E2,2.2111261E2,1.6280817E2,1.6900369E0,4.1576366E0,1.8906796E1,1.1803627E2,9.8954895E1,